FANN_FLO_2.1
num_layers=3
learning_rate=0.000001
connection_rate=1.000000
network_type=0
learning_momentum=0.000000
training_algorithm=0
train_error_function=1
train_stop_function=1
cascade_output_change_fraction=0.010000
quickprop_decay=-0.000100
quickprop_mu=1.750000
rprop_increase_factor=1.200000
rprop_decrease_factor=0.500000
rprop_delta_min=0.000000
rprop_delta_max=50.000000
rprop_delta_zero=0.100000
cascade_output_stagnation_epochs=12
cascade_candidate_change_fraction=0.010000
cascade_candidate_stagnation_epochs=12
cascade_max_out_epochs=150
cascade_min_out_epochs=50
cascade_max_cand_epochs=150
cascade_min_cand_epochs=50
cascade_num_candidate_groups=2
bit_fail_limit=5.00000000000000000000e-01
cascade_candidate_limit=1.00000000000000000000e+03
cascade_weight_multiplier=4.00000005960464477539e-01
cascade_activation_functions_count=10
cascade_activation_functions=3 5 7 8 10 11 14 15 16 17 
cascade_activation_steepnesses_count=137
cascade_activation_steepnesses=7.10000000000000000000e+01 1.92000000000000000000e+02 1.93000000000000000000e+02 1.94000000000000000000e+02 1.95000000000000000000e+02 1.96000000000000000000e+02 1.97000000000000000000e+02 1.98000000000000000000e+02 1.99000000000000000000e+02 2.00000000000000000000e+02 2.01000000000000000000e+02 2.02000000000000000000e+02 2.03000000000000000000e+02 2.04000000000000000000e+02 2.05000000000000000000e+02 3.20000000000000000000e+02 3.21000000000000000000e+02 3.22000000000000000000e+02 3.23000000000000000000e+02 3.24000000000000000000e+02 3.25000000000000000000e+02 3.26000000000000000000e+02 6.40000000000000000000e+02 6.41000000000000000000e+02 6.42000000000000000000e+02 6.43000000000000000000e+02 6.44000000000000000000e+02 6.45000000000000000000e+02 6.46000000000000000000e+02 6.47000000000000000000e+02 6.48000000000000000000e+02 6.49000000000000000000e+02 6.50000000000000000000e+02 6.51000000000000000000e+02 6.52000000000000000000e+02 6.53000000000000000000e+02 7.68000000000000000000e+02 7.69000000000000000000e+02 7.70000000000000000000e+02 7.71000000000000000000e+02 7.72000000000000000000e+02 7.73000000000000000000e+02 7.74000000000000000000e+02 7.75000000000000000000e+02 7.76000000000000000000e+02 7.77000000000000000000e+02 7.78000000000000000000e+02 7.79000000000000000000e+02 8.96000000000000000000e+02 8.97000000000000000000e+02 8.98000000000000000000e+02 8.99000000000000000000e+02 9.00000000000000000000e+02 9.01000000000000000000e+02 9.02000000000000000000e+02 9.03000000000000000000e+02 9.04000000000000000000e+02 9.05000000000000000000e+02 9.06000000000000000000e+02 9.07000000000000000000e+02 9.08000000000000000000e+02 9.09000000000000000000e+02 1.02400000000000000000e+03 1.02600000000000000000e+03 1.02700000000000000000e+03 1.02900000000000000000e+03 1.03200000000000000000e+03 1.03300000000000000000e+03 1.15400000000000000000e+03 1.15600000000000000000e+03 1.21900000000000000000e+03 1.22000000000000000000e+03 0.00000000000000000000e+00 0.00000000000000000000e+00 0.00000000000000000000e+00 6.00000000000000000000e+01 1.07737600000000000000e+06 1.07737700000000000000e+06 1.07737800000000000000e+06 1.07737900000000000000e+06 1.07738000000000000000e+06 1.07738100000000000000e+06 1.07738200000000000000e+06 1.07738300000000000000e+06 1.07738400000000000000e+06 1.07738500000000000000e+06 1.07738600000000000000e+06 1.07738700000000000000e+06 1.07738800000000000000e+06 1.07738900000000000000e+06 1.07744000000000000000e+06 1.07744100000000000000e+06 1.07744200000000000000e+06 1.07744300000000000000e+06 1.07744400000000000000e+06 1.07744500000000000000e+06 1.07744600000000000000e+06 1.07750900000000000000e+06 1.07751000000000000000e+06 1.07751300000000000000e+06 1.07751400000000000000e+06 1.07751500000000000000e+06 1.07751700000000000000e+06 1.07751800000000000000e+06 1.07751900000000000000e+06 1.07752000000000000000e+06 1.07752100000000000000e+06 1.07752200000000000000e+06 1.07752300000000000000e+06 1.07752400000000000000e+06 1.07752500000000000000e+06 1.07752600000000000000e+06 1.07752700000000000000e+06 1.07752800000000000000e+06 1.07752900000000000000e+06 1.07753000000000000000e+06 1.07753100000000000000e+06 1.07753200000000000000e+06 1.07753300000000000000e+06 1.07753400000000000000e+06 1.07753500000000000000e+06 1.07753600000000000000e+06 1.07753700000000000000e+06 1.07753800000000000000e+06 1.07753900000000000000e+06 1.07754000000000000000e+06 1.07754100000000000000e+06 1.07754200000000000000e+06 1.07754300000000000000e+06 1.07754400000000000000e+06 1.07754500000000000000e+06 1.07754600000000000000e+06 1.07754700000000000000e+06 1.07754800000000000000e+06 1.07754900000000000000e+06 1.07755000000000000000e+06 0.00000000000000000000e+00 
layer_sizes=132 17 132 
scale_included=0
neurons (num_inputs, activation_function, activation_steepness)=(0, 0, 0.00000000000000000000e+00) (0, 0, 0.00000000000000000000e+00) (0, 0, 0.00000000000000000000e+00) (0, 0, 0.00000000000000000000e+00) (0, 0, 0.00000000000000000000e+00) (0, 0, 0.00000000000000000000e+00) (0, 0, 0.00000000000000000000e+00) (0, 0, 0.00000000000000000000e+00) (0, 0, 0.00000000000000000000e+00) (0, 0, 0.00000000000000000000e+00) (0, 0, 0.00000000000000000000e+00) (0, 0, 0.00000000000000000000e+00) (0, 0, 0.00000000000000000000e+00) (0, 0, 0.00000000000000000000e+00) (0, 0, 0.00000000000000000000e+00) (0, 0, 0.00000000000000000000e+00) (0, 0, 0.00000000000000000000e+00) (0, 0, 0.00000000000000000000e+00) (0, 0, 0.00000000000000000000e+00) (0, 0, 0.00000000000000000000e+00) (0, 0, 0.00000000000000000000e+00) (0, 0, 0.00000000000000000000e+00) (0, 0, 0.00000000000000000000e+00) (0, 0, 0.00000000000000000000e+00) (0, 0, 0.00000000000000000000e+00) (0, 0, 0.00000000000000000000e+00) (0, 0, 0.00000000000000000000e+00) (0, 0, 0.00000000000000000000e+00) (0, 0, 0.00000000000000000000e+00) (0, 0, 0.00000000000000000000e+00) (0, 0, 0.00000000000000000000e+00) (0, 0, 0.00000000000000000000e+00) (0, 0, 0.00000000000000000000e+00) (0, 0, 0.00000000000000000000e+00) (0, 0, 0.00000000000000000000e+00) (0, 0, 0.00000000000000000000e+00) (0, 0, 0.00000000000000000000e+00) (0, 0, 0.00000000000000000000e+00) (0, 0, 0.00000000000000000000e+00) (0, 0, 0.00000000000000000000e+00) (0, 0, 0.00000000000000000000e+00) (0, 0, 0.00000000000000000000e+00) (0, 0, 0.00000000000000000000e+00) (0, 0, 0.00000000000000000000e+00) (0, 0, 0.00000000000000000000e+00) (0, 0, 0.00000000000000000000e+00) (0, 0, 0.00000000000000000000e+00) (0, 0, 0.00000000000000000000e+00) (0, 0, 0.00000000000000000000e+00) (0, 0, 0.00000000000000000000e+00) (0, 0, 0.00000000000000000000e+00) (0, 0, 0.00000000000000000000e+00) (0, 0, 0.00000000000000000000e+00) (0, 0, 0.00000000000000000000e+00) (0, 0, 0.00000000000000000000e+00) (0, 0, 0.00000000000000000000e+00) (0, 0, 0.00000000000000000000e+00) (0, 0, 0.00000000000000000000e+00) (0, 0, 0.00000000000000000000e+00) (0, 0, 0.00000000000000000000e+00) (0, 0, 0.00000000000000000000e+00) (0, 0, 0.00000000000000000000e+00) (0, 0, 0.00000000000000000000e+00) (0, 0, 0.00000000000000000000e+00) (0, 0, 0.00000000000000000000e+00) (0, 0, 0.00000000000000000000e+00) (0, 0, 0.00000000000000000000e+00) (0, 0, 0.00000000000000000000e+00) (0, 0, 0.00000000000000000000e+00) (0, 0, 0.00000000000000000000e+00) (0, 0, 0.00000000000000000000e+00) (0, 0, 0.00000000000000000000e+00) (0, 0, 0.00000000000000000000e+00) (0, 0, 0.00000000000000000000e+00) (0, 0, 0.00000000000000000000e+00) (0, 0, 0.00000000000000000000e+00) (0, 0, 0.00000000000000000000e+00) (0, 0, 0.00000000000000000000e+00) (0, 0, 0.00000000000000000000e+00) (0, 0, 0.00000000000000000000e+00) (0, 0, 0.00000000000000000000e+00) (0, 0, 0.00000000000000000000e+00) (0, 0, 0.00000000000000000000e+00) (0, 0, 0.00000000000000000000e+00) (0, 0, 0.00000000000000000000e+00) (0, 0, 0.00000000000000000000e+00) (0, 0, 0.00000000000000000000e+00) (0, 0, 0.00000000000000000000e+00) (0, 0, 0.00000000000000000000e+00) (0, 0, 0.00000000000000000000e+00) (0, 0, 0.00000000000000000000e+00) (0, 0, 0.00000000000000000000e+00) (0, 0, 0.00000000000000000000e+00) (0, 0, 0.00000000000000000000e+00) (0, 0, 0.00000000000000000000e+00) (0, 0, 0.00000000000000000000e+00) (0, 0, 0.00000000000000000000e+00) (0, 0, 0.00000000000000000000e+00) (0, 0, 0.00000000000000000000e+00) (0, 0, 0.00000000000000000000e+00) (0, 0, 0.00000000000000000000e+00) (0, 0, 0.00000000000000000000e+00) (0, 0, 0.00000000000000000000e+00) (0, 0, 0.00000000000000000000e+00) (0, 0, 0.00000000000000000000e+00) (0, 0, 0.00000000000000000000e+00) (0, 0, 0.00000000000000000000e+00) (0, 0, 0.00000000000000000000e+00) (0, 0, 0.00000000000000000000e+00) (0, 0, 0.00000000000000000000e+00) (0, 0, 0.00000000000000000000e+00) (0, 0, 0.00000000000000000000e+00) (0, 0, 0.00000000000000000000e+00) (0, 0, 0.00000000000000000000e+00) (0, 0, 0.00000000000000000000e+00) (0, 0, 0.00000000000000000000e+00) (0, 0, 0.00000000000000000000e+00) (0, 0, 0.00000000000000000000e+00) (0, 0, 0.00000000000000000000e+00) (0, 0, 0.00000000000000000000e+00) (0, 0, 0.00000000000000000000e+00) (0, 0, 0.00000000000000000000e+00) (0, 0, 0.00000000000000000000e+00) (0, 0, 0.00000000000000000000e+00) (0, 0, 0.00000000000000000000e+00) (0, 0, 0.00000000000000000000e+00) (0, 0, 0.00000000000000000000e+00) (0, 0, 0.00000000000000000000e+00) (0, 0, 0.00000000000000000000e+00) (0, 0, 0.00000000000000000000e+00) (0, 0, 0.00000000000000000000e+00) (0, 0, 0.00000000000000000000e+00) (132, 5, 5.00000000000000000000e-01) (132, 5, 5.00000000000000000000e-01) (132, 5, 5.00000000000000000000e-01) (132, 5, 5.00000000000000000000e-01) (132, 5, 5.00000000000000000000e-01) (132, 5, 5.00000000000000000000e-01) (132, 5, 5.00000000000000000000e-01) (132, 5, 5.00000000000000000000e-01) (132, 5, 5.00000000000000000000e-01) (132, 5, 5.00000000000000000000e-01) (132, 5, 5.00000000000000000000e-01) (132, 5, 5.00000000000000000000e-01) (132, 5, 5.00000000000000000000e-01) (132, 5, 5.00000000000000000000e-01) (132, 5, 5.00000000000000000000e-01) (132, 5, 5.00000000000000000000e-01) (0, 5, 0.00000000000000000000e+00) (17, 3, 5.00000000000000000000e-01) (17, 3, 5.00000000000000000000e-01) (17, 3, 5.00000000000000000000e-01) (17, 3, 5.00000000000000000000e-01) (17, 3, 5.00000000000000000000e-01) (17, 3, 5.00000000000000000000e-01) (17, 3, 5.00000000000000000000e-01) (17, 3, 5.00000000000000000000e-01) (17, 3, 5.00000000000000000000e-01) (17, 3, 5.00000000000000000000e-01) (17, 3, 5.00000000000000000000e-01) (17, 3, 5.00000000000000000000e-01) (17, 3, 5.00000000000000000000e-01) (17, 3, 5.00000000000000000000e-01) (17, 3, 5.00000000000000000000e-01) (17, 3, 5.00000000000000000000e-01) (17, 3, 5.00000000000000000000e-01) (17, 3, 5.00000000000000000000e-01) (17, 3, 5.00000000000000000000e-01) (17, 3, 5.00000000000000000000e-01) (17, 3, 5.00000000000000000000e-01) (17, 3, 5.00000000000000000000e-01) (17, 3, 5.00000000000000000000e-01) (17, 3, 5.00000000000000000000e-01) (17, 3, 5.00000000000000000000e-01) (17, 3, 5.00000000000000000000e-01) (17, 3, 5.00000000000000000000e-01) (17, 3, 5.00000000000000000000e-01) (17, 3, 5.00000000000000000000e-01) (17, 3, 5.00000000000000000000e-01) (17, 3, 5.00000000000000000000e-01) (17, 3, 5.00000000000000000000e-01) (17, 3, 5.00000000000000000000e-01) (17, 3, 5.00000000000000000000e-01) (17, 3, 5.00000000000000000000e-01) (17, 3, 5.00000000000000000000e-01) (17, 3, 5.00000000000000000000e-01) (17, 3, 5.00000000000000000000e-01) (17, 3, 5.00000000000000000000e-01) (17, 3, 5.00000000000000000000e-01) (17, 3, 5.00000000000000000000e-01) (17, 3, 5.00000000000000000000e-01) (17, 3, 5.00000000000000000000e-01) (17, 3, 5.00000000000000000000e-01) (17, 3, 5.00000000000000000000e-01) (17, 3, 5.00000000000000000000e-01) (17, 3, 5.00000000000000000000e-01) (17, 3, 5.00000000000000000000e-01) (17, 3, 5.00000000000000000000e-01) (17, 3, 5.00000000000000000000e-01) (17, 3, 5.00000000000000000000e-01) (17, 3, 5.00000000000000000000e-01) (17, 3, 5.00000000000000000000e-01) (17, 3, 5.00000000000000000000e-01) (17, 3, 5.00000000000000000000e-01) (17, 3, 5.00000000000000000000e-01) (17, 3, 5.00000000000000000000e-01) (17, 3, 5.00000000000000000000e-01) (17, 3, 5.00000000000000000000e-01) (17, 3, 5.00000000000000000000e-01) (17, 3, 5.00000000000000000000e-01) (17, 3, 5.00000000000000000000e-01) (17, 3, 5.00000000000000000000e-01) (17, 3, 5.00000000000000000000e-01) (17, 3, 5.00000000000000000000e-01) (17, 3, 5.00000000000000000000e-01) (17, 3, 5.00000000000000000000e-01) (17, 3, 5.00000000000000000000e-01) (17, 3, 5.00000000000000000000e-01) (17, 3, 5.00000000000000000000e-01) (17, 3, 5.00000000000000000000e-01) (17, 3, 5.00000000000000000000e-01) (17, 3, 5.00000000000000000000e-01) (17, 3, 5.00000000000000000000e-01) (17, 3, 5.00000000000000000000e-01) (17, 3, 5.00000000000000000000e-01) (17, 3, 5.00000000000000000000e-01) (17, 3, 5.00000000000000000000e-01) (17, 3, 5.00000000000000000000e-01) (17, 3, 5.00000000000000000000e-01) (17, 3, 5.00000000000000000000e-01) (17, 3, 5.00000000000000000000e-01) (17, 3, 5.00000000000000000000e-01) (17, 3, 5.00000000000000000000e-01) (17, 3, 5.00000000000000000000e-01) (17, 3, 5.00000000000000000000e-01) (17, 3, 5.00000000000000000000e-01) (17, 3, 5.00000000000000000000e-01) (17, 3, 5.00000000000000000000e-01) (17, 3, 5.00000000000000000000e-01) (17, 3, 5.00000000000000000000e-01) (17, 3, 5.00000000000000000000e-01) (17, 3, 5.00000000000000000000e-01) (17, 3, 5.00000000000000000000e-01) (17, 3, 5.00000000000000000000e-01) (17, 3, 5.00000000000000000000e-01) (17, 3, 5.00000000000000000000e-01) (17, 3, 5.00000000000000000000e-01) (17, 3, 5.00000000000000000000e-01) (17, 3, 5.00000000000000000000e-01) (17, 3, 5.00000000000000000000e-01) (17, 3, 5.00000000000000000000e-01) (17, 3, 5.00000000000000000000e-01) (17, 3, 5.00000000000000000000e-01) (17, 3, 5.00000000000000000000e-01) (17, 3, 5.00000000000000000000e-01) (17, 3, 5.00000000000000000000e-01) (17, 3, 5.00000000000000000000e-01) (17, 3, 5.00000000000000000000e-01) (17, 3, 5.00000000000000000000e-01) (17, 3, 5.00000000000000000000e-01) (17, 3, 5.00000000000000000000e-01) (17, 3, 5.00000000000000000000e-01) (17, 3, 5.00000000000000000000e-01) (17, 3, 5.00000000000000000000e-01) (17, 3, 5.00000000000000000000e-01) (17, 3, 5.00000000000000000000e-01) (17, 3, 5.00000000000000000000e-01) (17, 3, 5.00000000000000000000e-01) (17, 3, 5.00000000000000000000e-01) (17, 3, 5.00000000000000000000e-01) (17, 3, 5.00000000000000000000e-01) (17, 3, 5.00000000000000000000e-01) (17, 3, 5.00000000000000000000e-01) (17, 3, 5.00000000000000000000e-01) (17, 3, 5.00000000000000000000e-01) (17, 3, 5.00000000000000000000e-01) (17, 3, 5.00000000000000000000e-01) (17, 3, 5.00000000000000000000e-01) (17, 3, 5.00000000000000000000e-01) (17, 3, 5.00000000000000000000e-01) (0, 3, 0.00000000000000000000e+00) 
connections (connected_to_neuron, weight)=(0, 2.83641262054443359375e+01) (1, -1.54983959197998046875e+01) (2, -1.65172004699707031250e+01) (3, 2.79483914375305175781e+00) (4, -2.90018482208251953125e+01) (5, -2.55541229248046875000e+00) (6, -9.29614353179931640625e+00) (7, -3.12897157669067382812e+00) (8, 1.90379333496093750000e+01) (9, 1.66569023132324218750e+01) (10, -9.92521572113037109375e+00) (11, -2.74725651741027832031e+00) (12, -1.56895904541015625000e+01) (13, -2.67515707015991210938e+00) (14, 1.93639774322509765625e+01) (15, 9.49988555908203125000e+00) (16, 1.90862977504730224609e+00) (17, -5.60717773437500000000e+00) (18, 1.81970179080963134766e+00) (19, 3.83396863937377929688e+00) (20, 3.78971552848815917969e+00) (21, 6.93272256851196289062e+00) (22, -7.53731250762939453125e+00) (23, 3.52608222961425781250e+01) (24, -2.04360847473144531250e+01) (25, 3.56726150512695312500e+01) (26, 1.27302360534667968750e+01) (27, 6.77271509170532226562e+00) (28, -8.61468982696533203125e+00) (29, -9.95758914947509765625e+00) (30, -2.85994148254394531250e+01) (31, 1.97477321624755859375e+01) (32, 7.71563482284545898438e+00) (33, -1.82870693206787109375e+01) (34, 1.59341835975646972656e+00) (35, 2.24468445777893066406e+00) (36, 2.42068519592285156250e+01) (37, 7.02484464645385742188e+00) (38, 4.18804359436035156250e+00) (39, 7.94525289535522460938e+00) (40, 3.99160480499267578125e+00) (41, -5.79784440994262695312e+00) (42, -1.04156529903411865234e+00) (43, -4.73682260513305664062e+00) (44, 2.17262840270996093750e+01) (45, -2.29406280517578125000e+01) (46, -4.66568613052368164062e+00) (47, 2.83338375091552734375e+01) (48, -1.55906734466552734375e+01) (49, -1.66316184997558593750e+01) (50, 2.79514670372009277344e+00) (51, -2.91695003509521484375e+01) (52, -2.54515933990478515625e+00) (53, -9.40025806427001953125e+00) (54, -3.16074752807617187500e+00) (55, 1.90324325561523437500e+01) (56, 1.66081085205078125000e+01) (57, -9.96905231475830078125e+00) (58, -2.75508904457092285156e+00) (59, -1.56422748565673828125e+01) (60, -2.71034526824951171875e+00) (61, -7.59738731384277343750e+00) (62, 7.43862295150756835938e+00) (63, -5.63060188293457031250e+00) (64, -7.64058494567871093750e+00) (65, -5.53372287750244140625e+00) (66, 5.54584074020385742188e+00) (67, 7.48773455619812011719e-01) (68, 1.50429468154907226562e+01) (69, -7.64570140838623046875e+00) (70, 7.30773210525512695312e+00) (71, 6.95831155776977539062e+00) (72, -4.43928050994873046875e+00) (73, 3.81782035827636718750e+01) (74, -2.05157890319824218750e+01) (75, 3.57899017333984375000e+01) (76, 1.55187292098999023438e+01) (77, 9.67318725585937500000e+00) (78, -8.57654666900634765625e+00) (79, -9.97964191436767578125e+00) (80, -2.86797637939453125000e+01) (81, 1.97268428802490234375e+01) (82, 7.75598192214965820312e+00) (83, -1.84331684112548828125e+01) (84, 1.58967661857604980469e+00) (85, -1.53174324035644531250e+01) (86, -6.75638008117675781250e+00) (87, -2.76758289337158203125e+00) (88, 6.99551439285278320312e+00) (89, 1.21558475494384765625e+00) (90, 3.45665001869201660156e+00) (91, 4.12094211578369140625e+00) (92, 7.61114597320556640625e-01) (93, 8.54224443435668945312e-01) (94, 7.67784476280212402344e-01) (95, 7.80580401420593261719e-01) (96, 8.48010659217834472656e-01) (97, 7.54827618598937988281e-01) (98, 8.72670888900756835938e-01) (99, 8.86104583740234375000e-01) (100, 7.69172430038452148438e-01) (101, 8.89060616493225097656e-01) (102, 7.60365247726440429688e-01) (103, 9.39109921455383300781e-01) (104, 9.35334205627441406250e-01) (105, 8.00752639770507812500e-01) (106, 9.05818462371826171875e-01) (107, 7.57907867431640625000e-01) (108, 8.07921767234802246094e-01) (109, 7.78103947639465332031e-01) (110, 8.57468485832214355469e-01) (111, 8.92514228820800781250e-01) (112, 9.27228212356567382812e-01) (113, 7.88661718368530273438e-01) (114, 9.03198003768920898438e-01) (115, 7.70001053810119628906e-01) (116, 8.25228691101074218750e-01) (117, 7.60045289993286132812e-01) (118, 7.55889773368835449219e-01) (119, 7.46246457099914550781e-01) (120, 9.14676308631896972656e-01) (121, 9.19047951698303222656e-01) (122, 8.73323917388916015625e-01) (123, 9.31977152824401855469e-01) (124, 8.29439520835876464844e-01) (125, 8.97301673889160156250e-01) (126, 7.68726110458374023438e-01) (127, 9.33643698692321777344e-01) (128, 9.08314466476440429688e-01) (129, 8.97590279579162597656e-01) (130, 8.75918030738830566406e-01) (131, -5.14309585094451904297e-01) (0, -2.02405986785888671875e+01) (1, 3.16611862182617187500e+00) (2, 1.16953020095825195312e+01) (3, -2.44786281585693359375e+01) (4, -2.00552482604980468750e+01) (5, -1.13464851379394531250e+01) (6, -8.95172882080078125000e+00) (7, 9.00140571594238281250e+00) (8, 1.65408763885498046875e+01) (9, 1.28270235061645507812e+01) (10, 2.08234901428222656250e+01) (11, 1.46850848197937011719e+00) (12, 1.22945296764373779297e+00) (13, 3.79069805145263671875e+00) (14, 4.87062501907348632812e+00) (15, -1.37955176830291748047e+00) (16, -5.24140405654907226562e+00) (17, 2.29657983779907226562e+00) (18, 5.42147099971771240234e-01) (19, 7.39298641681671142578e-01) (20, 1.15627281367778778076e-01) (21, 1.35323858261108398438e+01) (22, -1.35958557128906250000e+01) (23, 1.49735260009765625000e+01) (24, 2.18914008140563964844e+00) (25, 1.27232055664062500000e+01) (26, 1.01223907470703125000e+01) (27, 1.08859300613403320312e+00) (28, -1.37477741241455078125e+01) (29, -1.73277454376220703125e+01) (30, -1.77730649709701538086e-01) (31, 2.36127929687500000000e+01) (32, -3.13251090049743652344e+00) (33, 2.33486604690551757812e+00) (34, 1.77223575115203857422e+00) (35, -1.02850055694580078125e+00) (36, 2.15925674438476562500e+01) (37, -7.16192305088043212891e-01) (38, -1.25376358032226562500e+01) (39, 2.24165964126586914062e+00) (40, -1.96258621215820312500e+01) (41, 9.24236202239990234375e+00) (42, 6.03471279144287109375e+00) (43, 2.36317710876464843750e+01) (44, 5.76516685485839843750e+01) (45, 3.17332801818847656250e+01) (46, -8.99735465645790100098e-02) (47, -2.01396770477294921875e+01) (48, 3.07425355911254882812e+00) (49, 1.17087640762329101562e+01) (50, -2.44043941497802734375e+01) (51, -2.00257797241210937500e+01) (52, -1.14185409545898437500e+01) (53, -8.93860054016113281250e+00) (54, 9.03068351745605468750e+00) (55, 1.64644508361816406250e+01) (56, 1.29044275283813476562e+01) (57, 2.09577980041503906250e+01) (58, 1.40309357643127441406e+00) (59, 1.19367897510528564453e+00) (60, 3.75147914886474609375e+00) (61, 1.15435199737548828125e+01) (62, -1.33157205581665039062e+01) (63, 1.12717666625976562500e+01) (64, 1.15129184722900390625e+01) (65, 1.13778896331787109375e+01) (66, -1.30994739532470703125e+01) (67, 4.85394859313964843750e+00) (68, -1.05444240570068359375e+01) (69, 1.14827423095703125000e+01) (70, -1.33062582015991210938e+01) (71, 1.35049333572387695312e+01) (72, -1.42181205749511718750e+01) (73, 1.45195846557617187500e+01) (74, 2.31534171104431152344e+00) (75, 1.26022377014160156250e+01) (76, 9.73238754272460937500e+00) (77, 3.81695568561553955078e-01) (78, -1.38226242065429687500e+01) (79, -1.74729557037353515625e+01) (80, -3.55601936578750610352e-01) (81, 2.36036758422851562500e+01) (82, -3.19126248359680175781e+00) (83, 2.24692106246948242188e+00) (84, 1.79034662246704101562e+00) (85, -3.79327273368835449219e+00) (86, 1.26026594638824462891e+00) (87, 4.89685583114624023438e+00) (88, -1.79360818862915039062e+00) (89, 3.90766173601150512695e-01) (90, -2.30715170502662658691e-01) (91, 8.59299421310424804688e-01) (92, -1.90365207195281982422e+00) (93, -1.95285236835479736328e+00) (94, -1.93412816524505615234e+00) (95, -2.05061674118041992188e+00) (96, -1.97366845607757568359e+00) (97, -1.92104041576385498047e+00) (98, -1.88105356693267822266e+00) (99, -1.96870315074920654297e+00) (100, -1.89819133281707763672e+00) (101, -2.01360464096069335938e+00) (102, -1.91969907283782958984e+00) (103, -2.04721045494079589844e+00) (104, -1.88341891765594482422e+00) (105, -1.96354305744171142578e+00) (106, -1.99028646945953369141e+00) (107, -1.89953601360321044922e+00) (108, -1.95574247837066650391e+00) (109, -1.93349087238311767578e+00) (110, -2.05888557434082031250e+00) (111, -1.94934928417205810547e+00) (112, -1.91193306446075439453e+00) (113, -1.98314368724822998047e+00) (114, -2.06793117523193359375e+00) (115, -1.97264015674591064453e+00) (116, -2.00845170021057128906e+00) (117, -1.88149130344390869141e+00) (118, -1.93770563602447509766e+00) (119, -1.88101828098297119141e+00) (120, -1.99567842483520507812e+00) (121, -1.87543189525604248047e+00) (122, -2.01506662368774414062e+00) (123, -2.02623963356018066406e+00) (124, -1.95516860485076904297e+00) (125, -1.87607133388519287109e+00) (126, -2.00372886657714843750e+00) (127, -2.05574321746826171875e+00) (128, -1.92400443553924560547e+00) (129, -2.01167464256286621094e+00) (130, -1.95132577419281005859e+00) (131, 1.35835647583007812500e-01) (0, -3.74026298522949218750e+01) (1, -2.69464397430419921875e+01) (2, -5.78280925750732421875e+00) (3, 1.51239204406738281250e+01) (4, -7.46831130981445312500e+00) (5, 5.74363756179809570312e+00) (6, 5.69824743270874023438e+00) (7, -6.59333086013793945312e+00) (8, 1.02184238433837890625e+01) (9, 7.97129917144775390625e+00) (10, 2.64823093414306640625e+01) (11, -1.06383819580078125000e+01) (12, -4.70491361618041992188e+00) (13, 3.23930025100708007812e+00) (14, -1.10588493347167968750e+01) (15, 6.29110097885131835938e+00) (16, 8.35931968688964843750e+00) (17, -3.44765281677246093750e+00) (18, -8.11426937580108642578e-01) (19, -1.88109084963798522949e-01) (20, -4.66061782836914062500e+00) (21, -4.58803138732910156250e+01) (22, -4.43586769104003906250e+01) (23, 7.17069053649902343750e+00) (24, 1.40972948074340820312e+01) (25, -4.20391321182250976562e+00) (26, -2.98833131790161132812e+00) (27, 8.58650588989257812500e+00) (28, -3.83501744270324707031e+00) (29, -9.06030464172363281250e+00) (30, -9.35277271270751953125e+00) (31, 3.42116966247558593750e+01) (32, -1.11330831050872802734e+00) (33, 1.13542366027832031250e+01) (34, 4.65029239654541015625e+00) (35, 1.58196425437927246094e+00) (36, -1.12492322921752929688e+01) (37, -1.54923563003540039062e+01) (38, 1.88961257934570312500e+01) (39, 4.53723430633544921875e+00) (40, -6.47857713699340820312e+00) (41, -1.29588146209716796875e+01) (42, -8.72249424457550048828e-01) (43, -7.60372877120971679688e+00) (44, 3.64515399932861328125e+00) (45, 1.37171001434326171875e+01) (46, 2.87751460075378417969e+00) (47, -3.74575691223144531250e+01) (48, -2.69560909271240234375e+01) (49, -5.75389671325683593750e+00) (50, 1.51794223785400390625e+01) (51, -7.62037277221679687500e+00) (52, 5.79295587539672851562e+00) (53, 5.72719144821166992188e+00) (54, -6.57774782180786132812e+00) (55, 1.02283954620361328125e+01) (56, 8.00243568420410156250e+00) (57, 2.64765758514404296875e+01) (58, -1.07401781082153320312e+01) (59, -4.88590335845947265625e+00) (60, 3.25257730484008789062e+00) (61, -9.97459697723388671875e+00) (62, 1.24493474960327148438e+01) (63, -9.70061588287353515625e+00) (64, -9.85116863250732421875e+00) (65, -9.72871303558349609375e+00) (66, 1.23358373641967773438e+01) (67, 2.24570393562316894531e+00) (68, 9.29972076416015625000e+00) (69, -9.96543979644775390625e+00) (70, 1.24562559127807617188e+01) (71, -4.59820518493652343750e+01) (72, -4.41977539062500000000e+01) (73, 7.44232463836669921875e+00) (74, 1.40791368484497070312e+01) (75, -4.15047264099121093750e+00) (76, -2.63798761367797851562e+00) (77, 8.83435153961181640625e+00) (78, -3.77702665328979492188e+00) (79, -9.04766273498535156250e+00) (80, -9.33154773712158203125e+00) (81, 3.41148872375488281250e+01) (82, -1.14320373535156250000e+00) (83, 1.13076114654541015625e+01) (84, 4.55602359771728515625e+00) (85, -2.16416001319885253906e+00) (86, -1.57505865097045898438e+01) (87, -7.59573030471801757812e+00) (88, 2.60096073150634765625e+00) (89, -1.79458606243133544922e+00) (90, -2.13975191116333007812e+00) (91, -2.75891923904418945312e+00) (92, 2.80605912208557128906e+00) (93, 2.86851143836975097656e+00) (94, 2.90560793876647949219e+00) (95, 2.73457884788513183594e+00) (96, 2.78422284126281738281e+00) (97, 2.73356652259826660156e+00) (98, 2.81924986839294433594e+00) (99, 2.89364838600158691406e+00) (100, 2.74787497520446777344e+00) (101, 2.83242630958557128906e+00) (102, 2.89519953727722167969e+00) (103, 2.77441000938415527344e+00) (104, 2.90767025947570800781e+00) (105, 2.77729296684265136719e+00) (106, 2.84426236152648925781e+00) (107, 2.87899756431579589844e+00) (108, 2.79309773445129394531e+00) (109, 2.78009629249572753906e+00) (110, 2.71584343910217285156e+00) (111, 2.78773903846740722656e+00) (112, 2.88213086128234863281e+00) (113, 2.78538489341735839844e+00) (114, 2.86448454856872558594e+00) (115, 2.89732909202575683594e+00) (116, 2.77261853218078613281e+00) (117, 2.72356200218200683594e+00) (118, 2.84210371971130371094e+00) (119, 2.78000569343566894531e+00) (120, 2.81443476676940917969e+00) (121, 2.79431319236755371094e+00) (122, 2.83178353309631347656e+00) (123, 2.71043944358825683594e+00) (124, 2.75275874137878417969e+00) (125, 2.82733559608459472656e+00) (126, 2.73499846458435058594e+00) (127, 2.82697033882141113281e+00) (128, 2.85087656974792480469e+00) (129, 2.84423232078552246094e+00) (130, 2.81054949760437011719e+00) (131, 3.58659958839416503906e+00) (0, -1.65243587493896484375e+01) (1, 8.59305858612060546875e+00) (2, -2.81885433197021484375e+00) (3, 1.10995995998382568359e+00) (4, -4.57460373640060424805e-01) (5, 3.19759893417358398438e+00) (6, -2.13827919960021972656e+00) (7, -1.24188928604125976562e+01) (8, -6.75543403625488281250e+00) (9, 7.85421752929687500000e+01) (10, 2.57608661651611328125e+01) (11, -1.14442844390869140625e+01) (12, -4.39693260192871093750e+00) (13, -4.48477268218994140625e+00) (14, 6.03086328506469726562e+00) (15, 6.35418844223022460938e+00) (16, -5.30645072460174560547e-01) (17, -1.45757365226745605469e+00) (18, -3.12400865368545055389e-03) (19, 6.12858653068542480469e-01) (20, 1.29178076982498168945e-01) (21, 1.04044265747070312500e+01) (22, 2.58641362190246582031e+00) (23, 8.24993312358856201172e-01) (24, -6.54453372955322265625e+00) (25, 2.92422270774841308594e+00) (26, -5.66941082477569580078e-01) (27, -9.88146364688873291016e-01) (28, 1.02633059024810791016e+00) (29, -8.41965770721435546875e+00) (30, 8.12711410522460937500e+01) (31, 1.05723676681518554688e+01) (32, -1.26200590133666992188e+01) (33, 5.74895811080932617188e+00) (34, -1.13155746459960937500e+01) (35, 1.27560651302337646484e+00) (36, -2.38730182647705078125e+01) (37, 8.03168058395385742188e-01) (38, 6.69755268096923828125e+00) (39, 1.66077876091003417969e+00) (40, -9.99539852142333984375e+00) (41, 6.64539194107055664062e+00) (42, 9.61318969726562500000e+00) (43, 5.15797805786132812500e+01) (44, 3.86057739257812500000e+01) (45, -3.76757413148880004883e-01) (46, -2.33768997192382812500e+01) (47, -1.65597267150878906250e+01) (48, 8.53523731231689453125e+00) (49, -2.84542608261108398438e+00) (50, 1.06300342082977294922e+00) (51, -5.59507608413696289062e-01) (52, 3.19540929794311523438e+00) (53, -1.96768641471862792969e+00) (54, -1.23382616043090820312e+01) (55, -6.75180816650390625000e+00) (56, 7.85183639526367187500e+01) (57, 2.57464466094970703125e+01) (58, -1.13960266113281250000e+01) (59, -4.35045337677001953125e+00) (60, -4.37046146392822265625e+00) (61, 2.51781016588211059570e-01) (62, -5.38526117801666259766e-01) (63, 5.71799837052822113037e-02) (64, 2.90217101573944091797e-01) (65, -8.47486406564712524414e-02) (66, -3.35686177015304565430e-01) (67, 1.77728977203369140625e+01) (68, -3.41598367691040039062e+00) (69, 2.19439029693603515625e-01) (70, -5.11260628700256347656e-01) (71, 1.04430637359619140625e+01) (72, 3.18283820152282714844e+00) (73, 1.50272762775421142578e+00) (74, -6.61044311523437500000e+00) (75, 2.95439791679382324219e+00) (76, 8.30089673399925231934e-02) (77, -1.34486272931098937988e-01) (78, 9.43494200706481933594e-01) (79, -8.32318973541259765625e+00) (80, 8.10818634033203125000e+01) (81, 1.06402006149291992188e+01) (82, -1.27583894729614257812e+01) (83, 5.89165258407592773438e+00) (84, -1.13082084655761718750e+01) (85, -5.42632436752319335938e+00) (86, -7.50905179977416992188e+00) (87, -5.16449570655822753906e-01) (88, 1.23877906799316406250e+00) (89, -1.82539939880371093750e-01) (90, -1.11474260687828063965e-01) (91, 6.98148369789123535156e-01) (92, 7.23577797412872314453e-01) (93, 7.33383476734161376953e-01) (94, 7.40802586078643798828e-01) (95, 6.25060737133026123047e-01) (96, 7.42715656757354736328e-01) (97, 6.13787949085235595703e-01) (98, 7.42272436618804931641e-01) (99, 6.31502330303192138672e-01) (100, 6.44489943981170654297e-01) (101, 7.22495019435882568359e-01) (102, 6.28745496273040771484e-01) (103, 7.46619164943695068359e-01) (104, 5.85155189037322998047e-01) (105, 6.38717472553253173828e-01) (106, 5.88220655918121337891e-01) (107, 7.36950933933258056641e-01) (108, 6.28305256366729736328e-01) (109, 6.50999367237091064453e-01) (110, 7.16589748859405517578e-01) (111, 6.34368240833282470703e-01) (112, 7.21035182476043701172e-01) (113, 7.47085511684417724609e-01) (114, 6.15510404109954833984e-01) (115, 5.84753453731536865234e-01) (116, 6.94168388843536376953e-01) (117, 6.47590816020965576172e-01) (118, 6.53622210025787353516e-01) (119, 7.40508258342742919922e-01) (120, 7.47367560863494873047e-01) (121, 6.73288166522979736328e-01) (122, 5.69268643856048583984e-01) (123, 7.10169970989227294922e-01) (124, 6.45896017551422119141e-01) (125, 7.49311029911041259766e-01) (126, 5.74459254741668701172e-01) (127, 6.27842724323272705078e-01) (128, 6.02320492267608642578e-01) (129, 7.55982935428619384766e-01) (130, 6.98608219623565673828e-01) (131, -1.26744437217712402344e+00) (0, 2.57901706695556640625e+01) (1, -4.89286537170410156250e+01) (2, -4.29502487182617187500e+01) (3, 1.01756004333496093750e+02) (4, 1.24129381179809570312e+01) (5, 7.18447952270507812500e+01) (6, 5.05776939392089843750e+01) (7, 2.33157825469970703125e+01) (8, 3.98385429382324218750e+01) (9, 1.20423233032226562500e+02) (10, 7.63737411499023437500e+01) (11, -1.09259433746337890625e+01) (12, 6.85024070739746093750e+00) (13, 5.21262073516845703125e+00) (14, 6.30590286254882812500e+01) (15, 1.70779609680175781250e+01) (16, 4.05129814147949218750e+01) (17, 6.62062911987304687500e+01) (18, 5.30266914367675781250e+01) (19, 5.72603797912597656250e+00) (20, 6.82469749450683593750e+00) (21, 4.40775184631347656250e+01) (22, -4.15491600036621093750e+01) (23, 8.01647796630859375000e+01) (24, -2.80266666412353515625e+01) (25, -6.48106842041015625000e+01) (26, 1.44761260986328125000e+02) (27, -4.06945533752441406250e+01) (28, 3.46460800170898437500e+01) (29, 8.61121273040771484375e+00) (30, 4.92695770263671875000e+01) (31, 1.99261379241943359375e+01) (32, 8.87491321563720703125e+00) (33, 1.87014369964599609375e+01) (34, -1.50753533840179443359e+00) (35, -4.59455108642578125000e+01) (36, 6.73718948364257812500e+01) (37, -1.79169265747070312500e+02) (38, 8.60869827270507812500e+01) (39, 1.23028419494628906250e+02) (40, 8.08103256225585937500e+01) (41, -3.41619539260864257812e+00) (42, 2.53526290893554687500e+02) (43, 1.57328689575195312500e+02) (44, 1.44834686279296875000e+02) (45, 3.07313327789306640625e+01) (46, -1.13941421508789062500e+02) (47, 2.56539936065673828125e+01) (48, -4.87710075378417968750e+01) (49, -4.29955062866210937500e+01) (50, 1.01748512268066406250e+02) (51, 1.25110960006713867188e+01) (52, 7.17933731079101562500e+01) (53, 5.04966011047363281250e+01) (54, 2.32500667572021484375e+01) (55, 3.99066963195800781250e+01) (56, 1.20502563476562500000e+02) (57, 7.64051132202148437500e+01) (58, -1.09667129516601562500e+01) (59, 6.85469627380371093750e+00) (60, 5.29780387878417968750e+00) (61, -2.02611045837402343750e+01) (62, -2.48053455352783203125e+01) (63, -1.87885074615478515625e+01) (64, -2.03732948303222656250e+01) (65, -1.88456478118896484375e+01) (66, -2.64186592102050781250e+01) (67, 1.29092239379882812500e+02) (68, -1.22201986312866210938e+01) (69, -2.03591156005859375000e+01) (70, -2.48833599090576171875e+01) (71, 4.42060127258300781250e+01) (72, -4.22340011596679687500e+01) (73, 7.96161727905273437500e+01) (74, -2.78664608001708984375e+01) (75, -6.48712387084960937500e+01) (76, 1.44203201293945312500e+02) (77, -4.13064956665039062500e+01) (78, 3.46110229492187500000e+01) (79, 8.66238117218017578125e+00) (80, 4.91819229125976562500e+01) (81, 1.99080257415771484375e+01) (82, 8.90221786499023437500e+00) (83, 1.87898674011230468750e+01) (84, -1.43055164813995361328e+00) (85, 1.35263500213623046875e+01) (86, 5.34702720642089843750e+01) (87, 3.79645156860351562500e+01) (88, 6.23184356689453125000e+01) (89, 5.14040565490722656250e+01) (90, 5.50475645065307617188e+00) (91, 6.92951202392578125000e+00) (92, -4.72189178466796875000e+01) (93, -4.71696624755859375000e+01) (94, -4.72376937866210937500e+01) (95, -4.72061614990234375000e+01) (96, -4.73474426269531250000e+01) (97, -4.73601837158203125000e+01) (98, -4.71669540405273437500e+01) (99, -4.73181457519531250000e+01) (100, -4.73332061767578125000e+01) (101, -4.72724685668945312500e+01) (102, -4.71683731079101562500e+01) (103, -4.73317260742187500000e+01) (104, -4.73335952758789062500e+01) (105, -4.71984558105468750000e+01) (106, -4.72761688232421875000e+01) (107, -4.73372650146484375000e+01) (108, -4.71753387451171875000e+01) (109, -4.71997909545898437500e+01) (110, -4.71776809692382812500e+01) (111, -4.72862472534179687500e+01) (112, -4.73494033813476562500e+01) (113, -4.72358856201171875000e+01) (114, -4.73099365234375000000e+01) (115, -4.72227935791015625000e+01) (116, -4.72086639404296875000e+01) (117, -4.72367553710937500000e+01) (118, -4.73034286499023437500e+01) (119, -4.73249282836914062500e+01) (120, -4.72151794433593750000e+01) (121, -4.72801361083984375000e+01) (122, -4.72765350341796875000e+01) (123, -4.72686386108398437500e+01) (124, -4.72842559814453125000e+01) (125, -4.73486251831054687500e+01) (126, -4.73092041015625000000e+01) (127, -4.72662506103515625000e+01) (128, -4.73433609008789062500e+01) (129, -4.73106079101562500000e+01) (130, -4.72189102172851562500e+01) (131, -4.51750793457031250000e+01) (0, 6.43309783935546875000e+01) (1, -3.37049293518066406250e+01) (2, 9.34865570068359375000e+00) (3, -4.57766876220703125000e+01) (4, 1.13969736099243164062e+01) (5, 2.62637233734130859375e+01) (6, -6.61568880081176757812e+00) (7, 1.35461273193359375000e+01) (8, 1.82881240844726562500e+01) (9, -3.46321792602539062500e+01) (10, 8.44259929656982421875e+00) (11, -8.86649894714355468750e+00) (12, -9.33190631866455078125e+00) (13, -8.97584247589111328125e+00) (14, 6.54271411895751953125e+00) (15, -6.64779853820800781250e+00) (16, 6.09866321086883544922e-01) (17, 1.82858645915985107422e+00) (18, -4.30110216140747070312e-01) (19, 2.88063406944274902344e+00) (20, 3.43891978263854980469e+00) (21, -1.73433065414428710938e+00) (22, 2.15936107635498046875e+01) (23, -2.03645277023315429688e+00) (24, 2.45120372772216796875e+01) (25, -1.78749561309814453125e+01) (26, 2.84271454811096191406e+00) (27, -7.67304515838623046875e+00) (28, 1.15069141387939453125e+01) (29, -2.30347003936767578125e+01) (30, -2.86126785278320312500e+01) (31, 1.69161567687988281250e+01) (32, -3.17281703948974609375e+01) (33, -2.63235628604888916016e-01) (34, -7.19852685928344726562e+00) (35, 5.70036745071411132812e+00) (36, -1.13238754272460937500e+01) (37, -3.11395034790039062500e+01) (38, 8.35586452484130859375e+00) (39, -7.84519195556640625000e+00) (40, 1.71929874420166015625e+01) (41, -2.34720635414123535156e+00) (42, -1.62399368286132812500e+01) (43, -3.29297471046447753906e+00) (44, 2.98183650970458984375e+01) (45, -3.30418052673339843750e+01) (46, 5.76793050765991210938e+00) (47, 6.42960357666015625000e+01) (48, -3.37098884582519531250e+01) (49, 9.44528961181640625000e+00) (50, -4.59284820556640625000e+01) (51, 1.14741868972778320312e+01) (52, 2.62827548980712890625e+01) (53, -6.58392095565795898438e+00) (54, 1.35637435913085937500e+01) (55, 1.81699523925781250000e+01) (56, -3.47203369140625000000e+01) (57, 8.41081142425537109375e+00) (58, -8.94995498657226562500e+00) (59, -9.42679119110107421875e+00) (60, -8.88667392730712890625e+00) (61, 6.83980560302734375000e+00) (62, -3.19186687469482421875e+00) (63, 7.20669555664062500000e+00) (64, 6.83282947540283203125e+00) (65, 7.31312847137451171875e+00) (66, -3.71922445297241210938e+00) (67, 1.49359998703002929688e+01) (68, -2.43004131317138671875e+01) (69, 6.66747951507568359375e+00) (70, -3.23525762557983398438e+00) (71, -1.68196964263916015625e+00) (72, 2.15308208465576171875e+01) (73, -2.20833778381347656250e+00) (74, 2.45271549224853515625e+01) (75, -1.78737316131591796875e+01) (76, 2.74631381034851074219e+00) (77, -7.79013729095458984375e+00) (78, 1.15662651062011718750e+01) (79, -2.31670055389404296875e+01) (80, -2.86274566650390625000e+01) (81, 1.68554973602294921875e+01) (82, -3.18161373138427734375e+01) (83, -3.69585186243057250977e-01) (84, -7.19927310943603515625e+00) (85, -9.46418476104736328125e+00) (86, 9.37940788269042968750e+00) (87, -9.31293547153472900391e-01) (88, -2.45048016309738159180e-01) (89, -5.29071271419525146484e-01) (90, 2.45743703842163085938e+00) (91, 3.90412044525146484375e+00) (92, 2.95976662635803222656e+00) (93, 2.88061356544494628906e+00) (94, 2.86122059822082519531e+00) (95, 2.93355870246887207031e+00) (96, 2.83230662345886230469e+00) (97, 2.93754124641418457031e+00) (98, 2.87776112556457519531e+00) (99, 2.84237647056579589844e+00) (100, 2.94594407081604003906e+00) (101, 2.93564105033874511719e+00) (102, 2.90661883354187011719e+00) (103, 2.86680769920349121094e+00) (104, 2.86631083488464355469e+00) (105, 2.95036816596984863281e+00) (106, 2.93608736991882324219e+00) (107, 2.97180342674255371094e+00) (108, 2.85591483116149902344e+00) (109, 2.91829657554626464844e+00) (110, 2.81593441963195800781e+00) (111, 2.94617533683776855469e+00) (112, 2.92837309837341308594e+00) (113, 2.84817719459533691406e+00) (114, 2.83281302452087402344e+00) (115, 2.97809481620788574219e+00) (116, 2.79909443855285644531e+00) (117, 2.94461512565612792969e+00) (118, 2.93547415733337402344e+00) (119, 2.89860987663269042969e+00) (120, 2.93213248252868652344e+00) (121, 2.92336678504943847656e+00) (122, 2.92315411567687988281e+00) (123, 2.90041136741638183594e+00) (124, 2.81248021125793457031e+00) (125, 2.79289793968200683594e+00) (126, 2.84245944023132324219e+00) (127, 2.85334372520446777344e+00) (128, 2.93898749351501464844e+00) (129, 2.92879271507263183594e+00) (130, 2.90430426597595214844e+00) (131, 4.18603420257568359375e+00) (0, 9.63348269462585449219e-01) (1, -2.00615005493164062500e+01) (2, 1.24392163753509521484e+00) (3, 3.81455495953559875488e-02) (4, 1.58281135559082031250e+01) (5, 5.18732833862304687500e+00) (6, 1.13261203765869140625e+01) (7, -4.82628345489501953125e+00) (8, 2.45421028137207031250e+00) (9, -1.82080764770507812500e+01) (10, 8.26537322998046875000e+00) (11, -3.37364411354064941406e+00) (12, 8.38289642333984375000e+00) (13, 6.83150959014892578125e+00) (14, 2.48835611343383789062e+00) (15, 3.02428221702575683594e+00) (16, -7.93427085876464843750e+00) (17, -6.41765832901000976562e-01) (18, 4.81927871704101562500e-01) (19, -1.06236934661865234375e+00) (20, -3.45692306756973266602e-01) (21, 1.70383605957031250000e+01) (22, 3.28260345458984375000e+01) (23, -1.16435165405273437500e+01) (24, 8.10360050201416015625e+00) (25, 4.32342958450317382812e+00) (26, -1.46674594879150390625e+01) (27, 7.71491956710815429688e+00) (28, -3.04844021797180175781e+00) (29, 1.63973751068115234375e+01) (30, -1.95981712341308593750e+01) (31, 1.15402374267578125000e+01) (32, 1.31444787979125976562e+01) (33, 5.86753845214843750000e-01) (34, 7.40656280517578125000e+00) (35, -1.96938490867614746094e+00) (36, 9.94565105438232421875e+00) (37, -3.74635863304138183594e+00) (38, -4.27457656860351562500e+01) (39, 6.66422605514526367188e-01) (40, -2.43882274627685546875e+01) (41, 6.82415544986724853516e-01) (42, -7.73094320297241210938e+00) (43, -7.16955041885375976562e+00) (44, 1.45164213180541992188e+01) (45, 8.37228012084960937500e+00) (46, -3.38328218460083007812e+00) (47, 1.04578077793121337891e+00) (48, -1.99521636962890625000e+01) (49, 1.21667647361755371094e+00) (50, -1.31354341283440589905e-02) (51, 1.58266639709472656250e+01) (52, 5.07980251312255859375e+00) (53, 1.13446388244628906250e+01) (54, -4.82305526733398437500e+00) (55, 2.48566865921020507812e+00) (56, -1.83129615783691406250e+01) (57, 8.44495391845703125000e+00) (58, -3.46580195426940917969e+00) (59, 8.45969963073730468750e+00) (60, 6.81360816955566406250e+00) (61, 1.44542956352233886719e+00) (62, -2.93945503234863281250e+00) (63, 2.15084671974182128906e+00) (64, 1.53798079490661621094e+00) (65, 2.14032745361328125000e+00) (66, -3.40684533119201660156e+00) (67, 5.25583314895629882812e+00) (68, 5.05597000122070312500e+01) (69, 1.50675058364868164062e+00) (70, -2.77509737014770507812e+00) (71, 1.70516891479492187500e+01) (72, 3.28300666809082031250e+01) (73, -1.18168315887451171875e+01) (74, 8.10736942291259765625e+00) (75, 4.37177610397338867188e+00) (76, -1.48816728591918945312e+01) (77, 7.65665674209594726562e+00) (78, -2.97349047660827636719e+00) (79, 1.65395908355712890625e+01) (80, -1.96763839721679687500e+01) (81, 1.14387893676757812500e+01) (82, 1.32441530227661132812e+01) (83, 5.45636296272277832031e-01) (84, 7.50393772125244140625e+00) (85, -2.94836807250976562500e+00) (86, -3.44082498550415039062e+00) (87, 7.88072729110717773438e+00) (88, 2.07608878612518310547e-01) (89, -5.53359925746917724609e-01) (90, -2.77195572853088378906e-01) (91, -1.16234850883483886719e+00) (92, -2.12828397750854492188e+00) (93, -2.02296328544616699219e+00) (94, -2.01962542533874511719e+00) (95, -2.02702689170837402344e+00) (96, -2.13217353820800781250e+00) (97, -2.05962705612182617188e+00) (98, -2.11129474639892578125e+00) (99, -2.02852725982666015625e+00) (100, -1.98960661888122558594e+00) (101, -2.13236808776855468750e+00) (102, -2.15085935592651367188e+00) (103, -2.00354123115539550781e+00) (104, -2.10461473464965820312e+00) (105, -2.08129358291625976562e+00) (106, -2.05409765243530273438e+00) (107, -2.05581521987915039062e+00) (108, -1.99436831474304199219e+00) (109, -2.14071989059448242188e+00) (110, -2.06969690322875976562e+00) (111, -2.15732717514038085938e+00) (112, -2.12228202819824218750e+00) (113, -2.09818506240844726562e+00) (114, -2.10588359832763671875e+00) (115, -2.14870023727416992188e+00) (116, -2.07213115692138671875e+00) (117, -1.97429537773132324219e+00) (118, -2.11884450912475585938e+00) (119, -2.06049966812133789062e+00) (120, -2.14918804168701171875e+00) (121, -1.99431967735290527344e+00) (122, -2.01934695243835449219e+00) (123, -2.11539602279663085938e+00) (124, -2.05520725250244140625e+00) (125, -2.07688379287719726562e+00) (126, -1.98038220405578613281e+00) (127, -2.02528691291809082031e+00) (128, -1.97445178031921386719e+00) (129, -2.12957620620727539062e+00) (130, -2.09173059463500976562e+00) (131, 9.90747272968292236328e-01) (0, -9.58681774139404296875e+00) (1, -2.12397122383117675781e+00) (2, 4.65232658386230468750e+01) (3, 1.57548189163208007812e+01) (4, 4.02345008850097656250e+01) (5, 4.18756446838378906250e+01) (6, -1.17464195251464843750e+02) (7, -6.14223957061767578125e+00) (8, -7.24350051879882812500e+01) (9, 4.56536293029785156250e+01) (10, -3.97656631469726562500e+00) (11, 6.31744384765625000000e+01) (12, -7.84057664871215820312e+00) (13, 1.79262351989746093750e+01) (14, 9.81419754028320312500e+00) (15, -5.38193416595458984375e+00) (16, -9.38020038604736328125e+00) (17, -1.61342597007751464844e+00) (18, -8.75073909759521484375e+00) (19, 5.90028667449951171875e+00) (20, -1.97499907016754150391e+00) (21, -8.17718315124511718750e+00) (22, 1.95548973083496093750e+01) (23, -1.31449508666992187500e+02) (24, 5.94812736511230468750e+01) (25, 3.23837852478027343750e+01) (26, -2.07301197052001953125e+01) (27, -1.76541461944580078125e+01) (28, -3.25878334045410156250e+01) (29, 2.48838272094726562500e+01) (30, 1.23484054565429687500e+02) (31, 2.60406246185302734375e+01) (32, 2.63236007690429687500e+01) (33, -1.33792972564697265625e+01) (34, 2.18948192596435546875e+01) (35, -2.29927849769592285156e+00) (36, 6.02248096466064453125e+00) (37, -1.28976577758789062500e+02) (38, 7.57394313812255859375e+00) (39, -2.69822635650634765625e+01) (40, -1.85039806365966796875e+01) (41, -5.93100242614746093750e+01) (42, 7.66240692138671875000e+01) (43, 5.31267127990722656250e+01) (44, -1.54991064071655273438e+01) (45, -3.35168914794921875000e+01) (46, 3.07520828247070312500e+01) (47, -9.54436779022216796875e+00) (48, -2.12933778762817382812e+00) (49, 4.64113960266113281250e+01) (50, 1.57314805984497070312e+01) (51, 4.02605552673339843750e+01) (52, 4.19722099304199218750e+01) (53, -1.17355354309082031250e+02) (54, -6.26485157012939453125e+00) (55, -7.23580703735351562500e+01) (56, 4.56900367736816406250e+01) (57, -3.94806337356567382812e+00) (58, 6.32008285522460937500e+01) (59, -8.01546955108642578125e+00) (60, 1.79247283935546875000e+01) (61, 1.31817825317382812500e+02) (62, -1.32365203857421875000e+02) (63, 1.32333724975585937500e+02) (64, 1.31885971069335937500e+02) (65, 1.32393051147460937500e+02) (66, -1.32802185058593750000e+02) (67, -1.92525619506835937500e+02) (68, -1.60073638916015625000e+02) (69, 1.31921585083007812500e+02) (70, -1.32317962646484375000e+02) (71, -8.09809494018554687500e+00) (72, 2.09655723571777343750e+01) (73, -1.29921432495117187500e+02) (74, 5.96361045837402343750e+01) (75, 3.23918266296386718750e+01) (76, -1.94075603485107421875e+01) (77, -1.63072605133056640625e+01) (78, -3.25076141357421875000e+01) (79, 2.48655395507812500000e+01) (80, 1.23530838012695312500e+02) (81, 2.59549007415771484375e+01) (82, 2.64121208190917968750e+01) (83, -1.33279209136962890625e+01) (84, 2.20241050720214843750e+01) (85, -9.75685596466064453125e+00) (86, 5.09330062866210937500e+01) (87, -2.27916545867919921875e+01) (88, -3.92230153083801269531e+00) (89, -5.13704729080200195312e+00) (90, 9.96525573730468750000e+00) (91, -6.07331323623657226562e+00) (92, 2.53388971090316772461e-01) (93, 2.79019594192504882812e-01) (94, 2.84834921360015869141e-01) (95, 3.85146141052246093750e-01) (96, 2.35529810190200805664e-01) (97, 2.52087682485580444336e-01) (98, 4.11677241325378417969e-01) (99, 2.52419561147689819336e-01) (100, 4.19436812400817871094e-01) (101, 3.81003379821777343750e-01) (102, 2.47983932495117187500e-01) (103, 3.21644008159637451172e-01) (104, 3.80929112434387207031e-01) (105, 4.04448270797729492188e-01) (106, 3.49730789661407470703e-01) (107, 3.12624037265777587891e-01) (108, 3.93930017948150634766e-01) (109, 2.82466888427734375000e-01) (110, 3.20508599281311035156e-01) (111, 3.90182077884674072266e-01) (112, 3.11514794826507568359e-01) (113, 3.16771209239959716797e-01) (114, 3.09666872024536132812e-01) (115, 2.75235056877136230469e-01) (116, 3.20465922355651855469e-01) (117, 3.54053318500518798828e-01) (118, 3.93699705600738525391e-01) (119, 2.87463963031768798828e-01) (120, 3.12639296054840087891e-01) (121, 3.19456100463867187500e-01) (122, 2.43918865919113159180e-01) (123, 3.34856927394866943359e-01) (124, 3.67314636707305908203e-01) (125, 2.97590851783752441406e-01) (126, 2.88844525814056396484e-01) (127, 3.71681392192840576172e-01) (128, 3.18507611751556396484e-01) (129, 2.69343465566635131836e-01) (130, 3.92945826053619384766e-01) (131, 7.17726945877075195312e-01) (0, 3.00793647766113281250e+01) (1, -1.03525152206420898438e+01) (2, 1.73959808349609375000e+01) (3, 1.41859283447265625000e+01) (4, 2.02453041076660156250e+01) (5, 1.48696899414062500000e+01) (6, -2.49867610931396484375e+01) (7, 6.69949569702148437500e+01) (8, 1.11131950378417968750e+02) (9, 1.04619934082031250000e+02) (10, 8.27901535034179687500e+01) (11, -1.91228179931640625000e+01) (12, -5.48264169692993164062e+00) (13, 5.50034284591674804688e-01) (14, 5.95785808563232421875e+00) (15, 9.46456909179687500000e+00) (16, 7.55574464797973632812e+00) (17, 1.13841962814331054688e+01) (18, 1.02044391632080078125e+01) (19, 6.41722059249877929688e+00) (20, 9.01916885375976562500e+00) (21, -9.04208946228027343750e+00) (22, 3.54883146286010742188e+00) (23, -1.44842090606689453125e+01) (24, 6.09065818786621093750e+01) (25, -3.41168479919433593750e+01) (26, -9.45631742477416992188e-01) (27, 1.07080907821655273438e+01) (28, 6.98752136230468750000e+01) (29, 1.21196792602539062500e+02) (30, 1.13578781127929687500e+02) (31, 2.01331367492675781250e+01) (32, -8.42706680297851562500e+00) (33, 5.06673038005828857422e-01) (34, 4.19807642698287963867e-01) (35, -7.87058162689208984375e+00) (36, 5.22399635314941406250e+01) (37, -6.80236129760742187500e+01) (38, 6.64211425781250000000e+01) (39, 4.70172653198242187500e+01) (40, 6.59608306884765625000e+01) (41, 4.74690322875976562500e+01) (42, 2.42496749877929687500e+02) (43, 1.31223449707031250000e+02) (44, 6.78767166137695312500e+01) (45, 3.29060821533203125000e+01) (46, -4.86599235534667968750e+01) (47, 2.99868659973144531250e+01) (48, -1.04628610610961914062e+01) (49, 1.72569618225097656250e+01) (50, 1.41001510620117187500e+01) (51, 2.02728729248046875000e+01) (52, 1.49646911621093750000e+01) (53, -2.48938007354736328125e+01) (54, 6.69070663452148437500e+01) (55, 1.11194664001464843750e+02) (56, 1.04541503906250000000e+02) (57, 8.27312088012695312500e+01) (58, -1.90341491699218750000e+01) (59, -5.49070596694946289062e+00) (60, 5.62210321426391601562e-01) (61, -6.71963882446289062500e+00) (62, -1.81252515316009521484e+00) (63, -6.70834732055664062500e+00) (64, -6.77162456512451171875e+00) (65, -6.78885746002197265625e+00) (66, -1.77574336528778076172e+00) (67, -2.05680408477783203125e+01) (68, -1.05890502929687500000e+01) (69, -6.63919353485107421875e+00) (70, -1.90644395351409912109e+00) (71, -9.07189750671386718750e+00) (72, 4.75536775588989257812e+00) (73, -1.32794599533081054688e+01) (74, 6.10141334533691406250e+01) (75, -3.41785469055175781250e+01) (76, 1.64082765579223632812e-01) (77, 1.18467168807983398438e+01) (78, 6.98708496093750000000e+01) (79, 1.21181976318359375000e+02) (80, 1.13437957763671875000e+02) (81, 1.99927940368652343750e+01) (82, -8.44103813171386718750e+00) (83, 3.79407256841659545898e-01) (84, 4.53867167234420776367e-01) (85, -8.75375938415527343750e+00) (86, 5.61465322971343994141e-01) (87, 6.57789707183837890625e+00) (88, 1.39605045318603515625e+01) (89, 1.01345300674438476562e+01) (90, 5.53540134429931640625e+00) (91, 9.88317871093750000000e+00) (92, -7.41260910034179687500e+00) (93, -7.36168193817138671875e+00) (94, -7.41135883331298828125e+00) (95, -7.37769222259521484375e+00) (96, -7.34964847564697265625e+00) (97, -7.23875236511230468750e+00) (98, -7.31007671356201171875e+00) (99, -7.23653411865234375000e+00) (100, -7.27140140533447265625e+00) (101, -7.27380466461181640625e+00) (102, -7.31379413604736328125e+00) (103, -7.23568344116210937500e+00) (104, -7.25258064270019531250e+00) (105, -7.38716983795166015625e+00) (106, -7.37948131561279296875e+00) (107, -7.38598251342773437500e+00) (108, -7.37324523925781250000e+00) (109, -7.22779369354248046875e+00) (110, -7.25119781494140625000e+00) (111, -7.33218097686767578125e+00) (112, -7.22408866882324218750e+00) (113, -7.33693408966064453125e+00) (114, -7.31142139434814453125e+00) (115, -7.30820178985595703125e+00) (116, -7.39584064483642578125e+00) (117, -7.29199695587158203125e+00) (118, -7.36223411560058593750e+00) (119, -7.24013328552246093750e+00) (120, -7.36758232116699218750e+00) (121, -7.23013019561767578125e+00) (122, -7.32009506225585937500e+00) (123, -7.35626220703125000000e+00) (124, -7.36783885955810546875e+00) (125, -7.30751323699951171875e+00) (126, -7.30999279022216796875e+00) (127, -7.29351902008056640625e+00) (128, -7.32229614257812500000e+00) (129, -7.39607143402099609375e+00) (130, -7.30608940124511718750e+00) (131, -8.59050178527832031250e+00) (0, -8.90014724731445312500e+01) (1, 8.88586616516113281250e+00) (2, 3.69829978942871093750e+01) (3, -7.60489273071289062500e+00) (4, -1.70744190216064453125e+01) (5, -5.18527603149414062500e+00) (6, 2.13548870086669921875e+01) (7, 3.55363070964813232422e-01) (8, -1.92065215110778808594e+00) (9, 1.00749959945678710938e+01) (10, -1.55202949047088623047e+00) (11, -1.79473152160644531250e+01) (12, -2.54296040534973144531e+00) (13, 7.65099191665649414062e+00) (14, 9.79746437072753906250e+00) (15, -3.91856265068054199219e+00) (16, 4.92115402221679687500e+00) (17, -2.14120483398437500000e+00) (18, 8.31800043582916259766e-01) (19, -6.66284978389739990234e-01) (20, -2.80040591955184936523e-01) (21, 3.86952896118164062500e+01) (22, 2.37216110229492187500e+01) (23, 5.80187320709228515625e+00) (24, -2.96315612792968750000e+01) (25, -1.42374277114868164062e+01) (26, 6.64447498321533203125e+00) (27, -3.80418561398983001709e-02) (28, -2.15944080352783203125e+01) (29, 1.17889583110809326172e+00) (30, -1.96834030151367187500e+01) (31, 7.04213476181030273438e+00) (32, -1.44165563583374023438e+01) (33, -4.79615173339843750000e+01) (34, 1.11628236770629882812e+01) (35, 4.81048226356506347656e-01) (36, -9.96613025665283203125e+00) (37, -2.40741519927978515625e+01) (38, 4.53193893432617187500e+01) (39, -1.76750583648681640625e+01) (40, 4.70416603088378906250e+01) (41, -2.75070648193359375000e+01) (42, 2.75946254730224609375e+01) (43, 4.85732972621917724609e-01) (44, -1.06996173858642578125e+01) (45, -1.72256584167480468750e+01) (46, -3.05596275329589843750e+01) (47, -8.90329666137695312500e+01) (48, 9.04849052429199218750e+00) (49, 3.71152992248535156250e+01) (50, -7.69942092895507812500e+00) (51, -1.70941410064697265625e+01) (52, -5.13432979583740234375e+00) (53, 2.11983242034912109375e+01) (54, 3.95486116409301757812e-01) (55, -1.98632287979125976562e+00) (56, 1.00356626510620117188e+01) (57, -1.36270248889923095703e+00) (58, -1.78316268920898437500e+01) (59, -2.55146336555480957031e+00) (60, 7.68666791915893554688e+00) (61, 1.15188181400299072266e+00) (62, 3.47941786050796508789e-01) (63, 1.80314874649047851562e+00) (64, 1.22990667819976806641e+00) (65, 1.84061002731323242188e+00) (66, -1.35309576988220214844e-01) (67, 7.02712833881378173828e-01) (68, 4.92479743957519531250e+01) (69, 1.27944076061248779297e+00) (70, 3.38800698518753051758e-01) (71, 3.85380783081054687500e+01) (72, 2.36773910522460937500e+01) (73, 5.74338006973266601562e+00) (74, -2.96649475097656250000e+01) (75, -1.42961702346801757812e+01) (76, 6.78565835952758789062e+00) (77, -6.22194856405258178711e-02) (78, -2.15344600677490234375e+01) (79, 1.19773185253143310547e+00) (80, -1.95821838378906250000e+01) (81, 6.97895860671997070312e+00) (82, -1.45806455612182617188e+01) (83, -4.79648475646972656250e+01) (84, 1.11810960769653320312e+01) (85, -9.11105060577392578125e+00) (86, 1.41783988475799560547e+00) (87, -4.31785392761230468750e+00) (88, 1.45079565048217773438e+00) (89, 8.38130116462707519531e-01) (90, -4.47832584381103515625e-01) (91, -5.07659912109375000000e-01) (92, 1.00832986831665039062e+00) (93, 1.04111361503601074219e+00) (94, 9.56598162651062011719e-01) (95, 9.20583128929138183594e-01) (96, 1.02117848396301269531e+00) (97, 9.50988173484802246094e-01) (98, 9.97888803482055664062e-01) (99, 1.03404521942138671875e+00) (100, 9.12772297859191894531e-01) (101, 9.23432111740112304688e-01) (102, 1.03993010520935058594e+00) (103, 1.04930782318115234375e+00) (104, 9.80296492576599121094e-01) (105, 8.86111140251159667969e-01) (106, 1.08055078983306884766e+00) (107, 9.67293143272399902344e-01) (108, 1.04793798923492431641e+00) (109, 1.05839049816131591797e+00) (110, 9.45020437240600585938e-01) (111, 9.84685659408569335938e-01) (112, 8.91155719757080078125e-01) (113, 9.67902660369873046875e-01) (114, 1.05935132503509521484e+00) (115, 9.54802393913269042969e-01) (116, 9.46484565734863281250e-01) (117, 9.51589465141296386719e-01) (118, 9.39339041709899902344e-01) (119, 9.21770453453063964844e-01) (120, 1.04254269599914550781e+00) (121, 9.62648987770080566406e-01) (122, 1.05265164375305175781e+00) (123, 9.67749834060668945312e-01) (124, 9.20627713203430175781e-01) (125, 9.26133990287780761719e-01) (126, 1.00520110130310058594e+00) (127, 1.05865037441253662109e+00) (128, 9.93993639945983886719e-01) (129, 9.19957876205444335938e-01) (130, 1.00958740711212158203e+00) (131, -1.86086833477020263672e+00) (0, 7.44247665405273437500e+01) (1, 1.11532182693481445312e+01) (2, 2.06695389747619628906e+00) (3, -5.75514554977416992188e+00) (4, 2.47865962982177734375e+01) (5, -5.52316236495971679688e+00) (6, -1.94356238842010498047e+00) (7, 2.23583388328552246094e+00) (8, -9.75583076477050781250e+00) (9, -8.24017143249511718750e+00) (10, -7.82879972457885742188e+00) (11, -8.05786323547363281250e+00) (12, 3.43689508736133575439e-02) (13, 3.40050768852233886719e+00) (14, 1.93758773803710937500e+01) (15, 9.85123336315155029297e-01) (16, 5.32368004322052001953e-01) (17, -3.01131278276443481445e-01) (18, 1.19198167324066162109e+00) (19, 2.52102446556091308594e+00) (20, -1.48882150650024414062e-01) (21, 6.72590942382812500000e+01) (22, -4.68743467330932617188e+00) (23, -5.10233449935913085938e+00) (24, 1.26905412673950195312e+01) (25, -8.98446679115295410156e-01) (26, -4.27501201629638671875e+00) (27, 2.50495266914367675781e+00) (28, -2.82513761520385742188e+00) (29, 8.37003040313720703125e+00) (30, 4.01992177963256835938e+00) (31, 4.82332277297973632812e+00) (32, -1.50297374725341796875e+01) (33, -2.38866844177246093750e+01) (34, 9.97034358978271484375e+00) (35, -4.85142517089843750000e+00) (36, -2.20290637016296386719e+00) (37, -4.12470245361328125000e+00) (38, 5.08241033554077148438e+00) (39, -8.66377544403076171875e+00) (40, 6.80758047103881835938e+00) (41, -6.97178983688354492188e+00) (42, -6.88066816329956054688e+00) (43, 1.89360504150390625000e+01) (44, 2.62773761749267578125e+01) (45, -2.34330101013183593750e+01) (46, -7.01296091079711914062e+00) (47, 7.44811019897460937500e+01) (48, 1.11930608749389648438e+01) (49, 1.97131454944610595703e+00) (50, -5.83918046951293945312e+00) (51, 2.47182254791259765625e+01) (52, -5.53960371017456054688e+00) (53, -1.87040662765502929688e+00) (54, 2.33502411842346191406e+00) (55, -9.82790946960449218750e+00) (56, -8.26547813415527343750e+00) (57, -7.92329835891723632812e+00) (58, -8.10747051239013671875e+00) (59, 1.24498657882213592529e-01) (60, 3.36409592628479003906e+00) (61, 5.37227058410644531250e+00) (62, -5.29197025299072265625e+00) (63, 7.45326232910156250000e+00) (64, 5.44993686676025390625e+00) (65, 7.46749973297119140625e+00) (66, -7.53063774108886718750e+00) (67, -6.33229136466979980469e-01) (68, 2.39576854705810546875e+01) (69, 5.43206310272216796875e+00) (70, -5.33500289916992187500e+00) (71, 6.73472747802734375000e+01) (72, -4.84774827957153320312e+00) (73, -5.35141038894653320312e+00) (74, 1.25711412429809570312e+01) (75, -1.04950714111328125000e+00) (76, -4.39187526702880859375e+00) (77, 2.38362836837768554688e+00) (78, -2.67944049835205078125e+00) (79, 8.44482707977294921875e+00) (80, 3.96416497230529785156e+00) (81, 4.78216886520385742188e+00) (82, -1.50202903747558593750e+01) (83, -2.39614410400390625000e+01) (84, 1.00865144729614257812e+01) (85, -1.96434059143066406250e+01) (86, 3.28828930854797363281e-01) (87, -8.87576580047607421875e-01) (88, 5.03466486930847167969e-01) (89, 5.05878403782844543457e-02) (90, 6.91298246383666992188e-01) (91, 1.60415792465209960938e+00) (92, -2.21915817260742187500e+00) (93, -2.14545917510986328125e+00) (94, -2.23828506469726562500e+00) (95, -2.13262367248535156250e+00) (96, -2.12119984626770019531e+00) (97, -2.22451114654541015625e+00) (98, -2.26424503326416015625e+00) (99, -2.18693971633911132812e+00) (100, -2.15590238571166992188e+00) (101, -2.13469552993774414062e+00) (102, -2.22220659255981445312e+00) (103, -2.07977437973022460938e+00) (104, -2.25641536712646484375e+00) (105, -2.22196674346923828125e+00) (106, -2.26742887496948242188e+00) (107, -2.27039098739624023438e+00) (108, -2.11773753166198730469e+00) (109, -2.12150549888610839844e+00) (110, -2.16134119033813476562e+00) (111, -2.20251274108886718750e+00) (112, -2.08530020713806152344e+00) (113, -2.23429584503173828125e+00) (114, -2.19956493377685546875e+00) (115, -2.11751103401184082031e+00) (116, -2.15707206726074218750e+00) (117, -2.18929958343505859375e+00) (118, -2.25469398498535156250e+00) (119, -2.22170019149780273438e+00) (120, -2.14118385314941406250e+00) (121, -2.09663844108581542969e+00) (122, -2.19392347335815429688e+00) (123, -2.08422493934631347656e+00) (124, -2.16607570648193359375e+00) (125, -2.15615987777709960938e+00) (126, -2.14080715179443359375e+00) (127, -2.21122598648071289062e+00) (128, -2.10454559326171875000e+00) (129, -2.12900495529174804688e+00) (130, -2.12202405929565429688e+00) (131, 9.58086133003234863281e-01) (0, -1.41890239715576171875e+01) (1, 2.56364650726318359375e+01) (2, 3.97214241027832031250e+01) (3, -9.66621551513671875000e+01) (4, 8.59259567260742187500e+01) (5, 6.14131355285644531250e+00) (6, -1.86472301483154296875e+01) (7, -9.53249835968017578125e+00) (8, -4.63978080749511718750e+01) (9, -4.45631790161132812500e+01) (10, 3.05198535919189453125e+01) (11, 6.56173706054687500000e+01) (12, -6.80506324768066406250e+00) (13, 3.12526965141296386719e+00) (14, 3.42320728302001953125e+00) (15, -9.52604866027832031250e+00) (16, -9.82765769958496093750e+00) (17, -3.62596206665039062500e+01) (18, -1.22913694381713867188e+01) (19, -1.37191352844238281250e+01) (20, -5.72887420654296875000e+00) (21, -3.77236709594726562500e+01) (22, 3.27159767150878906250e+01) (23, -1.41229644775390625000e+02) (24, 1.17678321838378906250e+02) (25, -8.01799583435058593750e+00) (26, -4.26117744445800781250e+01) (27, 4.04503669738769531250e+01) (28, -1.25477476119995117188e+01) (29, 1.63580875396728515625e+01) (30, 4.88120727539062500000e+01) (31, 2.38561038970947265625e+01) (32, 3.17751884460449218750e+01) (33, -1.60695209503173828125e+01) (34, 1.10452508926391601562e+01) (35, -7.03238964080810546875e+00) (36, 2.39490337371826171875e+01) (37, 2.07733516693115234375e+01) (38, -3.39511322975158691406e+00) (39, 1.17546710968017578125e+01) (40, -2.85734901428222656250e+01) (41, 2.19427394866943359375e+01) (42, -5.49546661376953125000e+01) (43, 1.14673161506652832031e+00) (44, -3.06323337554931640625e+01) (45, -4.56924438476562500000e+01) (46, 7.10332260131835937500e+01) (47, -1.41357078552246093750e+01) (48, 2.56372203826904296875e+01) (49, 3.97416191101074218750e+01) (50, -9.66363677978515625000e+01) (51, 8.58738021850585937500e+01) (52, 6.07872009277343750000e+00) (53, -1.86432247161865234375e+01) (54, -9.43183994293212890625e+00) (55, -4.63691902160644531250e+01) (56, -4.45547561645507812500e+01) (57, 3.05229625701904296875e+01) (58, 6.56725234985351562500e+01) (59, -6.77219963073730468750e+00) (60, 2.98190140724182128906e+00) (61, 8.71723403930664062500e+01) (62, -9.18980102539062500000e+01) (63, 8.62495193481445312500e+01) (64, 8.71692581176757812500e+01) (65, 8.62050247192382812500e+01) (66, -9.07086410522460937500e+01) (67, -1.47141784667968750000e+02) (68, -1.29606079101562500000e+02) (69, 8.73513259887695312500e+01) (70, -9.19147491455078125000e+01) (71, -3.77475585937500000000e+01) (72, 3.24014892578125000000e+01) (73, -1.41543365478515625000e+02) (74, 1.17809715270996093750e+02) (75, -7.95326900482177734375e+00) (76, -4.30032386779785156250e+01) (77, 4.02449684143066406250e+01) (78, -1.24883069992065429688e+01) (79, 1.62511672973632812500e+01) (80, 4.88529586791992187500e+01) (81, 2.37609462738037109375e+01) (82, 3.16701583862304687500e+01) (83, -1.60826034545898437500e+01) (84, 1.11597681045532226562e+01) (85, -3.05510177612304687500e+01) (86, 2.93238806724548339844e+00) (87, -1.82698860168457031250e+01) (88, -3.58452720642089843750e+01) (89, -1.18531074523925781250e+01) (90, -1.40989875793457031250e+01) (91, -5.34492206573486328125e+00) (92, -3.67056703567504882812e+00) (93, -3.66209125518798828125e+00) (94, -3.79425573348999023438e+00) (95, -3.66766595840454101562e+00) (96, -3.74155187606811523438e+00) (97, -3.82933378219604492188e+00) (98, -3.77123355865478515625e+00) (99, -3.64455986022949218750e+00) (100, -3.64417934417724609375e+00) (101, -3.73017835617065429688e+00) (102, -3.74257659912109375000e+00) (103, -3.74482297897338867188e+00) (104, -3.70262479782104492188e+00) (105, -3.76538228988647460938e+00) (106, -3.76091957092285156250e+00) (107, -3.68817567825317382812e+00) (108, -3.72369718551635742188e+00) (109, -3.83524370193481445312e+00) (110, -3.66508626937866210938e+00) (111, -3.77383422851562500000e+00) (112, -3.77573299407958984375e+00) (113, -3.83216047286987304688e+00) (114, -3.78997850418090820312e+00) (115, -3.79846811294555664062e+00) (116, -3.67830181121826171875e+00) (117, -3.72639513015747070312e+00) (118, -3.78431081771850585938e+00) (119, -3.82742071151733398438e+00) (120, -3.76576995849609375000e+00) (121, -3.66705036163330078125e+00) (122, -3.74952173233032226562e+00) (123, -3.79915571212768554688e+00) (124, -3.69195508956909179688e+00) (125, -3.70662593841552734375e+00) (126, -3.82965898513793945312e+00) (127, -3.79633903503417968750e+00) (128, -3.69881153106689453125e+00) (129, -3.76374053955078125000e+00) (130, -3.80371189117431640625e+00) (131, -4.74177932739257812500e+00) (0, 2.53765583038330078125e+01) (1, 1.83096923828125000000e+01) (2, 4.32320475578308105469e-01) (3, 2.32537918090820312500e+01) (4, 6.87119817733764648438e+00) (5, 4.05740499496459960938e+00) (6, -1.07169589996337890625e+01) (7, -1.46357202529907226562e+00) (8, -1.55435380935668945312e+01) (9, 2.39263095855712890625e+01) (10, 3.98651909828186035156e+00) (11, 2.50588989257812500000e+00) (12, 1.84486162662506103516e+00) (13, 9.82955360412597656250e+00) (14, 6.55176067352294921875e+00) (15, 5.21940135955810546875e+00) (16, 4.37874794006347656250e+00) (17, -3.70444130897521972656e+00) (18, -1.84403944015502929688e+00) (19, -7.42357909679412841797e-01) (20, -1.34774088859558105469e+00) (21, 1.57375221252441406250e+01) (22, 1.18237857818603515625e+01) (23, -1.48881206512451171875e+01) (24, -7.89268779754638671875e+00) (25, -5.48120498657226562500e-01) (26, 5.86324644088745117188e+00) (27, 1.25641357898712158203e+00) (28, -5.25870275497436523438e+00) (29, 6.17410182952880859375e+00) (30, -3.72154164314270019531e+00) (31, -1.03732752799987792969e+00) (32, 1.95211963653564453125e+01) (33, -6.58797502517700195312e+00) (34, 8.50869560241699218750e+00) (35, -5.91607141494750976562e+00) (36, -3.15161466598510742188e+00) (37, -1.57653226852416992188e+01) (38, 1.51553022861480712891e+00) (39, -1.08732337951660156250e+01) (40, -1.36696004867553710938e+01) (41, 1.33934898376464843750e+01) (42, -1.64844965934753417969e+00) (43, 3.77914118766784667969e+00) (44, -2.15039672851562500000e+01) (45, 1.97709102630615234375e+01) (46, -1.06963033676147460938e+01) (47, 2.52163906097412109375e+01) (48, 1.83245277404785156250e+01) (49, 5.79086720943450927734e-01) (50, 2.31649627685546875000e+01) (51, 6.83916139602661132812e+00) (52, 4.02514505386352539062e+00) (53, -1.07108478546142578125e+01) (54, -1.43897914886474609375e+00) (55, -1.55499525070190429688e+01) (56, 2.40117321014404296875e+01) (57, 3.95870852470397949219e+00) (58, 2.40414810180664062500e+00) (59, 1.85007441043853759766e+00) (60, 9.99891567230224609375e+00) (61, -6.18792867660522460938e+00) (62, 6.87319564819335937500e+00) (63, -6.01028108596801757812e+00) (64, -6.26683950424194335938e+00) (65, -6.00421190261840820312e+00) (66, 6.68821048736572265625e+00) (67, -3.95777273178100585938e+00) (68, -2.97731704711914062500e+01) (69, -6.32390832901000976562e+00) (70, 6.74580669403076171875e+00) (71, 1.58159465789794921875e+01) (72, 9.41551399230957031250e+00) (73, -1.73977069854736328125e+01) (74, -7.78375625610351562500e+00) (75, -4.28791970014572143555e-01) (76, 3.60119128227233886719e+00) (77, -1.26147592067718505859e+00) (78, -5.19256067276000976562e+00) (79, 6.27082252502441406250e+00) (80, -3.75093412399291992188e+00) (81, -1.12545037269592285156e+00) (82, 1.94576549530029296875e+01) (83, -6.57336950302124023438e+00) (84, 8.57565021514892578125e+00) (85, -9.18355655670166015625e+00) (86, -9.11516785621643066406e-01) (87, -5.75914335250854492188e+00) (88, 3.02887105941772460938e+00) (89, -2.26329541206359863281e+00) (90, 3.26179951429367065430e-01) (91, -2.21164965629577636719e+00) (92, -2.09421539306640625000e+00) (93, -2.13973689079284667969e+00) (94, -1.99187755584716796875e+00) (95, -2.01417207717895507812e+00) (96, -1.96825468540191650391e+00) (97, -2.05425524711608886719e+00) (98, -2.11301517486572265625e+00) (99, -2.11261510848999023438e+00) (100, -2.03126931190490722656e+00) (101, -2.08902001380920410156e+00) (102, -2.13696455955505371094e+00) (103, -1.94627547264099121094e+00) (104, -1.97891926765441894531e+00) (105, -2.00032401084899902344e+00) (106, -1.97557830810546875000e+00) (107, -1.98070478439331054688e+00) (108, -2.10270261764526367188e+00) (109, -1.98463773727416992188e+00) (110, -2.03964805603027343750e+00) (111, -2.03470754623413085938e+00) (112, -1.96757507324218750000e+00) (113, -2.13077545166015625000e+00) (114, -2.09894371032714843750e+00) (115, -2.08044481277465820312e+00) (116, -2.08412075042724609375e+00) (117, -2.06780433654785156250e+00) (118, -2.07194280624389648438e+00) (119, -2.08869576454162597656e+00) (120, -1.97515201568603515625e+00) (121, -2.01726865768432617188e+00) (122, -2.10015583038330078125e+00) (123, -2.12347221374511718750e+00) (124, -2.01117682456970214844e+00) (125, -1.94618940353393554688e+00) (126, -1.99182462692260742188e+00) (127, -2.03355336189270019531e+00) (128, -2.05457139015197753906e+00) (129, -1.95901525020599365234e+00) (130, -2.00032591819763183594e+00) (131, 2.25969243049621582031e+00) (0, 9.26812744140625000000e+00) (1, -1.58198289871215820312e+01) (2, 7.62940788269042968750e+00) (3, -4.97054052352905273438e+00) (4, -2.60103321075439453125e+00) (5, 4.03689384460449218750e+00) (6, -5.41473674774169921875e+00) (7, 8.41283702850341796875e+00) (8, -1.76461677551269531250e+01) (9, -7.04025316238403320312e+00) (10, -1.14580135345458984375e+01) (11, -5.64720451831817626953e-01) (12, -1.32291851043701171875e+01) (13, -5.14323759078979492188e+00) (14, 5.37466621398925781250e+00) (15, 4.07991600036621093750e+00) (16, -3.58443498611450195312e+00) (17, 1.35706055164337158203e+00) (18, -4.06964153051376342773e-01) (19, 2.17067182064056396484e-01) (20, 3.08103561401367187500e-01) (21, -3.62170333862304687500e+01) (22, 2.50605278015136718750e+01) (23, -1.23091735839843750000e+01) (24, 2.01963691711425781250e+01) (25, -1.13480634689331054688e+01) (26, 9.56717395782470703125e+00) (27, 1.02400026321411132812e+01) (28, 1.80308856964111328125e+01) (29, -1.24395990371704101562e+00) (30, -9.82055187225341796875e+00) (31, 1.83403357863426208496e-01) (32, 6.10362863540649414062e+00) (33, -1.90091304779052734375e+01) (34, -1.53311681747436523438e+00) (35, -1.99416488409042358398e-01) (36, 2.62723743915557861328e-01) (37, 5.08189976215362548828e-01) (38, 1.02101984024047851562e+01) (39, 5.14288616180419921875e+00) (40, 5.79307126998901367188e+00) (41, -1.15574808120727539062e+01) (42, -4.00752449035644531250e+01) (43, -1.97879085540771484375e+01) (44, -1.24020109176635742188e+01) (45, -6.26005172729492187500e-01) (46, 2.09602565765380859375e+01) (47, 9.33246231079101562500e+00) (48, -1.59465417861938476562e+01) (49, 7.72129440307617187500e+00) (50, -4.92321825027465820312e+00) (51, -2.69009828567504882812e+00) (52, 4.02014398574829101562e+00) (53, -5.56029319763183593750e+00) (54, 8.39861202239990234375e+00) (55, -1.77628326416015625000e+01) (56, -6.96567296981811523438e+00) (57, -1.13531265258789062500e+01) (58, -5.07028043270111083984e-01) (59, -1.32564239501953125000e+01) (60, -5.10941123962402343750e+00) (61, 2.17082524299621582031e+00) (62, -9.54913616180419921875e-01) (63, 2.02662014961242675781e+00) (64, 2.13486742973327636719e+00) (65, 2.15571141242980957031e+00) (66, -8.08306574821472167969e-01) (67, -4.19991836547851562500e+01) (68, 8.50592517852783203125e+00) (69, 2.10804820060729980469e+00) (70, -8.69378089904785156250e-01) (71, -3.61154327392578125000e+01) (72, 2.28581848144531250000e+01) (73, -1.44491262435913085938e+01) (74, 2.02208061218261718750e+01) (75, -1.14492368698120117188e+01) (76, 7.48804330825805664062e+00) (77, 8.12806606292724609375e+00) (78, 1.80508708953857421875e+01) (79, -1.31463527679443359375e+00) (80, -9.91455936431884765625e+00) (81, 2.17672273516654968262e-01) (82, 6.08945322036743164062e+00) (83, -1.91495571136474609375e+01) (84, -1.67921447753906250000e+00) (85, -3.88806295394897460938e+00) (86, -3.44241619110107421875e+00) (87, 3.99036669731140136719e+00) (88, -4.07508969306945800781e-01) (89, 6.12402968108654022217e-02) (90, 1.22547119855880737305e-01) (91, 2.54437863826751708984e-01) (92, -7.42415547370910644531e-01) (93, -8.16249012947082519531e-01) (94, -8.86650085449218750000e-01) (95, -8.46793651580810546875e-01) (96, -8.21883678436279296875e-01) (97, -7.91162371635437011719e-01) (98, -8.11331748962402343750e-01) (99, -8.84120225906372070312e-01) (100, -7.22355604171752929688e-01) (101, -6.99014425277709960938e-01) (102, -7.20927119255065917969e-01) (103, -8.25931549072265625000e-01) (104, -7.94447660446166992188e-01) (105, -8.35147142410278320312e-01) (106, -8.00726532936096191406e-01) (107, -7.16921091079711914062e-01) (108, -8.67970943450927734375e-01) (109, -8.67515325546264648438e-01) (110, -8.11739921569824218750e-01) (111, -8.03417921066284179688e-01) (112, -8.76327872276306152344e-01) (113, -6.95670008659362792969e-01) (114, -7.79809832572937011719e-01) (115, -8.54865074157714843750e-01) (116, -8.50715517997741699219e-01) (117, -7.35814094543457031250e-01) (118, -8.76742839813232421875e-01) (119, -8.46609592437744140625e-01) (120, -7.18767166137695312500e-01) (121, -8.28761935234069824219e-01) (122, -7.07501173019409179688e-01) (123, -7.70136594772338867188e-01) (124, -7.53979086875915527344e-01) (125, -7.03123807907104492188e-01) (126, -7.25899100303649902344e-01) (127, -8.84812831878662109375e-01) (128, -8.03246498107910156250e-01) (129, -8.46194744110107421875e-01) (130, -8.77909064292907714844e-01) (131, 1.38852703571319580078e+00) (0, 4.55924987792968750000e+01) (1, -2.18392066955566406250e+01) (2, 1.20611591339111328125e+01) (3, -1.02000131607055664062e+01) (4, 5.39697647094726562500e+00) (5, 3.38163203559815883636e-03) (6, -2.32676219940185546875e+00) (7, -2.20533221960067749023e-01) (8, 1.87226012349128723145e-01) (9, -2.38533854484558105469e+00) (10, 8.56457948684692382812e-02) (11, 6.27121400833129882812e+00) (12, 4.91118669509887695312e+00) (13, -2.69541049003601074219e+00) (14, 5.71285104751586914062e+00) (15, 1.98978722095489501953e+00) (16, -1.12548255920410156250e+01) (17, 9.69716489315032958984e-01) (18, 9.40893948078155517578e-01) (19, -2.66515642404556274414e-01) (20, -7.19513744115829467773e-02) (21, 2.19895992279052734375e+01) (22, -1.31123647689819335938e+01) (23, 2.14840946197509765625e+01) (24, -1.15603322982788085938e+01) (25, -1.92835494875907897949e-01) (26, 1.81203103065490722656e+00) (27, -7.49684810638427734375e-01) (28, -1.42684090137481689453e+00) (29, -1.14676594734191894531e+00) (30, -2.16519665718078613281e+00) (31, -1.41824990510940551758e-01) (32, -9.90946739912033081055e-02) (33, 1.51548886299133300781e+00) (34, 5.76530742645263671875e+00) (35, 9.40341353416442871094e-01) (36, -7.07267522811889648438e-01) (37, -2.21042776107788085938e+00) (38, -2.76363968849182128906e+00) (39, 5.91621518135070800781e-01) (40, 1.12624406814575195312e+00) (41, 1.79689526557922363281e+00) (42, 2.59498453140258789062e+00) (43, 4.31263160705566406250e+00) (44, 1.16105918884277343750e+01) (45, -9.08523499965667724609e-01) (46, 4.57971334457397460938e+00) (47, 4.55864257812500000000e+01) (48, -2.18339614868164062500e+01) (49, 1.19954738616943359375e+01) (50, -1.03141069412231445312e+01) (51, 5.50913619995117187500e+00) (52, 9.79340672492980957031e-02) (53, -2.30559730529785156250e+00) (54, -2.31521427631378173828e-01) (55, 2.96713978052139282227e-01) (56, -2.56890130043029785156e+00) (57, 9.31475162506103515625e-02) (58, 6.29221963882446289062e+00) (59, 4.85165500640869140625e+00) (60, -2.67991137504577636719e+00) (61, 8.94871520996093750000e+00) (62, -8.71282482147216796875e+00) (63, 1.05490970611572265625e+01) (64, 9.05302429199218750000e+00) (65, 1.05388069152832031250e+01) (66, -1.01465034484863281250e+01) (67, 3.52306850254535675049e-03) (68, 2.70884761810302734375e+01) (69, 9.01922607421875000000e+00) (70, -8.76596927642822265625e+00) (71, 2.20892505645751953125e+01) (72, -1.16938600540161132812e+01) (73, 2.28614044189453125000e+01) (74, -1.14822168350219726562e+01) (75, -1.74999997019767761230e-01) (76, 3.27134013175964355469e+00) (77, 6.79668903350830078125e-01) (78, -1.42303907871246337891e+00) (79, -1.16216552257537841797e+00) (80, -2.18647766113281250000e+00) (81, -1.55568212270736694336e-01) (82, -1.46424621343612670898e-01) (83, 1.47907876968383789062e+00) (84, 5.74684858322143554688e+00) (85, -5.72621250152587890625e+00) (86, -2.56067967414855957031e+00) (87, 1.09315614700317382812e+01) (88, -1.82251250743865966797e+00) (89, 1.42906323075294494629e-01) (90, -1.77753850817680358887e-01) (91, -1.86647459864616394043e-01) (92, 3.15387517213821411133e-01) (93, 2.53975242376327514648e-01) (94, 2.96836167573928833008e-01) (95, 2.73462206125259399414e-01) (96, 2.22675099968910217285e-01) (97, 2.17380419373512268066e-01) (98, 3.47693413496017456055e-01) (99, 1.88670530915260314941e-01) (100, 3.41662794351577758789e-01) (101, 3.73475700616836547852e-01) (102, 3.38818699121475219727e-01) (103, 2.19503596425056457520e-01) (104, 2.00923278927803039551e-01) (105, 2.55368143320083618164e-01) (106, 3.11896473169326782227e-01) (107, 3.16271990537643432617e-01) (108, 3.60860377550125122070e-01) (109, 2.35093668103218078613e-01) (110, 2.20103159546852111816e-01) (111, 3.22286278009414672852e-01) (112, 3.77615779638290405273e-01) (113, 2.75223523378372192383e-01) (114, 1.90153256058692932129e-01) (115, 2.48887196183204650879e-01) (116, 1.81541278958320617676e-01) (117, 2.02898159623146057129e-01) (118, 3.23455780744552612305e-01) (119, 2.45150402188301086426e-01) (120, 2.86743909120559692383e-01) (121, 3.20722907781600952148e-01) (122, 1.85280337929725646973e-01) (123, 2.24389806389808654785e-01) (124, 1.96965113282203674316e-01) (125, 3.04374486207962036133e-01) (126, 3.20112854242324829102e-01) (127, 2.41892352700233459473e-01) (128, 3.44007998704910278320e-01) (129, 2.90071517229080200195e-01) (130, 2.52823442220687866211e-01) (131, 1.55029129981994628906e+00) (0, 5.55949172973632812500e+01) (1, 9.21345138549804687500e+00) (2, -6.93309974670410156250e+00) (3, 4.64859104156494140625e+00) (4, -1.26260423660278320312e+01) (5, 2.38201007246971130371e-01) (6, -1.08849058151245117188e+01) (7, -1.67172183990478515625e+01) (8, 6.98743534088134765625e+00) (9, 7.76383042335510253906e-01) (10, 2.58549346923828125000e+01) (11, -3.97797966003417968750e+00) (12, 2.40648770332336425781e+00) (13, 3.87873864173889160156e+00) (14, -5.87133264541625976562e+00) (15, 5.29416656494140625000e+00) (16, -4.18130445480346679688e+00) (17, -2.08147478103637695312e+00) (18, -3.43908160924911499023e-01) (19, -1.46000236272811889648e-01) (20, -1.37144100666046142578e+00) (21, -6.52388572692871093750e+00) (22, 5.58860664367675781250e+01) (23, 2.04744300842285156250e+01) (24, -2.22511749267578125000e+01) (25, -1.39582138061523437500e+01) (26, 2.72554695606231689453e-01) (27, -2.88775038719177246094e+00) (28, -3.12469506263732910156e+00) (29, -2.50070858001708984375e+01) (30, -2.76818218231201171875e+01) (31, 2.30301437377929687500e+01) (32, 1.05761690139770507812e+01) (33, 2.83330745697021484375e+01) (34, -1.41757237911224365234e+00) (35, 3.35167765617370605469e+00) (36, 1.51174535751342773438e+01) (37, -2.53081798553466796875e+00) (38, 2.05869998931884765625e+01) (39, -1.37440233230590820312e+01) (40, 2.44651055335998535156e+00) (41, 1.49643955230712890625e+01) (42, 2.57357673645019531250e+01) (43, -4.82132053375244140625e+00) (44, 3.80082511901855468750e+01) (45, 1.40782594680786132812e+01) (46, 4.07198028564453125000e+01) (47, 5.55897903442382812500e+01) (48, 9.30834388732910156250e+00) (49, -7.09047031402587890625e+00) (50, 4.60833072662353515625e+00) (51, -1.26855649948120117188e+01) (52, 2.35017448663711547852e-01) (53, -1.08289937973022460938e+01) (54, -1.66174697875976562500e+01) (55, 6.94191265106201171875e+00) (56, 7.67004370689392089844e-01) (57, 2.58167495727539062500e+01) (58, -4.04210042953491210938e+00) (59, 2.58902239799499511719e+00) (60, 3.90980172157287597656e+00) (61, -3.05753493309020996094e+00) (62, 8.55666458606719970703e-01) (63, -2.79163289070129394531e+00) (64, -2.97410273551940917969e+00) (65, -2.67609095573425292969e+00) (66, 4.26654309034347534180e-01) (67, -6.38517570495605468750e+00) (68, 1.04698591232299804688e+01) (69, -2.90525603294372558594e+00) (70, 7.02749431133270263672e-01) (71, -6.58477306365966796875e+00) (72, 5.59048652648925781250e+01) (73, 2.04056415557861328125e+01) (74, -2.21184043884277343750e+01) (75, -1.39783306121826171875e+01) (76, 2.90485024452209472656e-01) (77, -3.06699419021606445312e+00) (78, -3.15417885780334472656e+00) (79, -2.50537357330322265625e+01) (80, -2.76972866058349609375e+01) (81, 2.29835968017578125000e+01) (82, 1.05476427078247070312e+01) (83, 2.84486007690429687500e+01) (84, -1.46967017650604248047e+00) (85, 1.33240187168121337891e+00) (86, -7.44731044769287109375e+00) (87, 3.16177010536193847656e+00) (88, 2.99838185310363769531e-01) (89, -1.04824431240558624268e-01) (90, -1.61412715911865234375e-01) (91, -1.32823789119720458984e+00) (92, -2.62867379188537597656e+00) (93, -2.49432396888732910156e+00) (94, -2.47847199440002441406e+00) (95, -2.53453564643859863281e+00) (96, -2.57598710060119628906e+00) (97, -2.64404606819152832031e+00) (98, -2.65084767341613769531e+00) (99, -2.45912432670593261719e+00) (100, -2.48106741905212402344e+00) (101, -2.61414551734924316406e+00) (102, -2.63162684440612792969e+00) (103, -2.54803061485290527344e+00) (104, -2.46106934547424316406e+00) (105, -2.48385930061340332031e+00) (106, -2.59108901023864746094e+00) (107, -2.55713963508605957031e+00) (108, -2.60238242149353027344e+00) (109, -2.53117156028747558594e+00) (110, -2.52210545539855957031e+00) (111, -2.50635886192321777344e+00) (112, -2.58026003837585449219e+00) (113, -2.63279986381530761719e+00) (114, -2.50740885734558105469e+00) (115, -2.50362133979797363281e+00) (116, -2.54679083824157714844e+00) (117, -2.59053206443786621094e+00) (118, -2.52424263954162597656e+00) (119, -2.45750069618225097656e+00) (120, -2.57442212104797363281e+00) (121, -2.55270266532897949219e+00) (122, -2.48326611518859863281e+00) (123, -2.54759812355041503906e+00) (124, -2.59152579307556152344e+00) (125, -2.50622916221618652344e+00) (126, -2.62663245201110839844e+00) (127, -2.51200175285339355469e+00) (128, -2.49478173255920410156e+00) (129, -2.62198853492736816406e+00) (130, -2.51563191413879394531e+00) (131, -1.20347969233989715576e-01) (132, 5.22016644477844238281e-01) (133, 1.77956128120422363281e+00) (134, 1.88962757587432861328e+00) (135, -5.09518265724182128906e-01) (136, 5.57318210601806640625e+00) (137, 1.70137703418731689453e+00) (138, 1.05006909370422363281e+00) (139, -1.23273744583129882812e+01) (140, 8.52021872997283935547e-01) (141, -3.67040657997131347656e+00) (142, 9.83862304687500000000e+00) (143, -5.18220424652099609375e+00) (144, 1.48317134380340576172e+00) (145, -2.95156359672546386719e+00) (146, -2.56091982126235961914e-01) (147, 4.32988834381103515625e+00) (148, -6.91296672821044921875e+00) (132, -4.04202133417129516602e-01) (133, -1.38538181781768798828e+00) (134, 6.09883308410644531250e+00) (135, 5.08783221244812011719e-01) (136, 6.65247011184692382812e+00) (137, 2.10505396127700805664e-01) (138, 1.22340691089630126953e+00) (139, -3.67978549003601074219e+00) (140, 1.31351661682128906250e+00) (141, 8.06952095031738281250e+00) (142, 3.35569977760314941406e+00) (143, -2.37542939186096191406e+00) (144, 1.16460010409355163574e-01) (145, 1.67027056217193603516e+00) (146, 7.08945810794830322266e-01) (147, 1.06643700599670410156e+00) (148, -9.17691707611083984375e+00) (132, 1.22835129499435424805e-01) (133, -2.80106329917907714844e+00) (134, 2.22906804084777832031e+00) (135, -7.70968616008758544922e-01) (136, 7.42263507843017578125e+00) (137, -2.29857301712036132812e+00) (138, 6.60000562667846679688e+00) (139, -7.85403013229370117188e+00) (140, -3.66807699203491210938e-01) (141, -2.05561590194702148438e+00) (142, -4.39900279045104980469e-01) (143, -9.58827018737792968750e+00) (144, -3.95913481712341308594e-01) (145, -9.53930556774139404297e-01) (146, 2.91143393516540527344e+00) (147, -1.11041235923767089844e+00) (148, -8.76113319396972656250e+00) (132, 1.35563695430755615234e+00) (133, -4.52048212289810180664e-01) (134, 6.23362809419631958008e-02) (135, 8.96471858024597167969e-01) (136, 3.02189278602600097656e+00) (137, -1.43420612812042236328e+00) (138, -2.96295928955078125000e+00) (139, -4.45780706405639648438e+00) (140, -9.39032435417175292969e-01) (141, 1.49760389328002929688e+00) (142, -1.61368250846862792969e+00) (143, -7.86408281326293945312e+00) (144, 6.85799121856689453125e-01) (145, -1.07650864124298095703e+00) (146, -8.90838813781738281250e+00) (147, 1.94147336483001708984e+00) (148, -6.65745592117309570312e+00) (132, -2.43801927566528320312e+00) (133, 3.18548202514648437500e+00) (134, 3.72966110706329345703e-01) (135, -1.29853117465972900391e+00) (136, 3.11276650428771972656e+00) (137, 1.17274451255798339844e+00) (138, -1.74189090728759765625e+00) (139, -7.63331079483032226562e+00) (140, -2.72523522377014160156e-01) (141, 6.67525172233581542969e-01) (142, 3.57699692249298095703e-01) (143, -4.82374620437622070312e+00) (144, -1.93085098266601562500e+00) (145, -1.85167104005813598633e-01) (146, 1.21948562562465667725e-01) (147, 3.33209961652755737305e-01) (148, -6.80187845230102539062e+00) (132, 2.38903546333312988281e+00) (133, 2.45653367042541503906e+00) (134, -3.55169504880905151367e-01) (135, 2.34598374366760253906e+00) (136, 3.69553661346435546875e+00) (137, 2.24017691612243652344e+00) (138, -7.68950045108795166016e-01) (139, -5.52464103698730468750e+00) (140, -9.38959062099456787109e-01) (141, 3.76475691795349121094e-01) (142, 1.13489888608455657959e-01) (143, -2.65400218963623046875e+00) (144, 1.22577297687530517578e+00) (145, -1.41885755583643913269e-02) (146, -3.07660490274429321289e-01) (147, -9.29497599601745605469e-01) (148, -8.50253677368164062500e+00) (132, 5.60181319713592529297e-01) (133, 1.58889031410217285156e+00) (134, -8.72223675251007080078e-01) (135, -9.03769373893737792969e-01) (136, 2.94752454757690429688e+00) (137, 4.78509128093719482422e-01) (138, -1.39034676551818847656e+00) (139, -4.58234262466430664062e+00) (140, 6.81729257106781005859e-01) (141, 1.22225177288055419922e+00) (142, -5.49937449395656585693e-02) (143, -2.97699594497680664062e+00) (144, -2.82130330801010131836e-01) (145, 6.22523486614227294922e-01) (146, -2.11711063981056213379e-01) (147, -3.83762061595916748047e-01) (148, -5.53093004226684570312e+00) (132, 1.10949054360389709473e-01) (133, 7.51896917819976806641e-01) (134, 2.65750199556350708008e-01) (135, 2.45742869377136230469e+00) (136, 1.84226500988006591797e+00) (137, 3.25269550085067749023e-02) (138, 1.96195900440216064453e-01) (139, -3.19989585876464843750e+00) (140, 2.84497714042663574219e+00) (141, 3.23071002960205078125e-01) (142, 7.83971130847930908203e-01) (143, -8.25617253780364990234e-01) (144, -5.52736401557922363281e-01) (145, 1.42375779151916503906e+00) (146, 3.61416712403297424316e-02) (147, -6.52534306049346923828e-01) (148, -5.79915761947631835938e+00) (132, 4.32688057422637939453e-01) (133, -9.69963729381561279297e-01) (134, 1.30579066276550292969e+00) (135, -2.27019023895263671875e+00) (136, 4.42182397842407226562e+00) (137, 1.04276049137115478516e+00) (138, 1.02411448955535888672e+00) (139, -6.45533323287963867188e+00) (140, 5.92429304122924804688e+00) (141, 1.86186277866363525391e+00) (142, -1.86475121974945068359e+00) (143, -1.04808127880096435547e+00) (144, 1.96052336692810058594e+00) (145, -3.35299730300903320312e+00) (146, 7.40593910217285156250e-01) (147, 1.49263751506805419922e+00) (148, -8.87108612060546875000e+00) (132, -1.34114313125610351562e+00) (133, 1.04412841796875000000e+00) (134, -1.26601135730743408203e+00) (135, 7.04229784011840820312e+00) (136, 6.61346530914306640625e+00) (137, -4.41285848617553710938e-01) (138, -1.76199829578399658203e+00) (139, -3.66652202606201171875e+00) (140, 4.57542705535888671875e+00) (141, 7.84104317426681518555e-02) (142, -2.50300824642181396484e-01) (143, -2.30312609672546386719e+00) (144, 2.29983067512512207031e+00) (145, -5.41242718696594238281e-01) (146, 3.16693365573883056641e-01) (147, -2.99393057823181152344e+00) (148, -9.61565971374511718750e+00) (132, -4.41211080551147460938e+00) (133, 3.24461746215820312500e+00) (134, 3.72327065467834472656e+00) (135, 4.52078056335449218750e+00) (136, 6.95720195770263671875e+00) (137, 3.77712845802307128906e-01) (138, 8.45198035240173339844e-01) (139, -5.49190282821655273438e+00) (140, 4.10890579223632812500e+00) (141, -1.06954181194305419922e+00) (142, -4.79382842779159545898e-01) (143, -4.56957817077636718750e+00) (144, -7.98009753227233886719e-01) (145, -3.29827094078063964844e+00) (146, 1.05292260646820068359e+00) (147, 3.78853178024291992188e+00) (148, -1.01791152954101562500e+01) (132, 2.33392521739006042480e-01) (133, 5.30920648574829101562e+00) (134, 9.04977023601531982422e-01) (135, 1.14530038833618164062e+00) (136, 5.20539426803588867188e+00) (137, -2.66043901443481445312e-01) (138, 3.54776215553283691406e+00) (139, -5.88212060928344726562e+00) (140, 2.34800052642822265625e+00) (141, -1.39531338214874267578e+00) (142, -1.93837237358093261719e+00) (143, -4.79272508621215820312e+00) (144, 4.12582015991210937500e+00) (145, -7.18973994255065917969e-01) (146, 4.21635055541992187500e+00) (147, 2.74244642257690429688e+00) (148, -9.08018875122070312500e+00) (132, -3.76346087455749511719e+00) (133, -1.33707594871520996094e+00) (134, 3.05542278289794921875e+00) (135, 7.92322754859924316406e-01) (136, 5.92903232574462890625e+00) (137, -7.89514303207397460938e+00) (138, 4.12761783599853515625e+00) (139, -7.17063999176025390625e+00) (140, 1.09818160533905029297e+00) (141, -7.49139785766601562500e+00) (142, -6.50544118881225585938e+00) (143, -3.63764452934265136719e+00) (144, 4.16987037658691406250e+00) (145, -4.76153087615966796875e+00) (146, 1.58842694759368896484e+00) (147, 5.13150215148925781250e+00) (148, -8.28872013092041015625e+00) (132, -3.12491726875305175781e+00) (133, 3.01329469680786132812e+00) (134, 2.46739912033081054688e+00) (135, -1.99780750274658203125e+00) (136, 4.95864009857177734375e+00) (137, -2.89510283619165420532e-02) (138, 1.05493938922882080078e+00) (139, -2.48419022560119628906e+00) (140, 1.46986767649650573730e-01) (141, -3.69443035125732421875e+00) (142, -7.18455195426940917969e-01) (143, -1.74501180648803710938e+00) (144, -1.67544066905975341797e+00) (145, -3.14433550834655761719e+00) (146, -2.18078923225402832031e+00) (147, 9.90821242332458496094e-01) (148, -6.74648523330688476562e+00) (132, 9.16813910007476806641e-01) (133, 2.21102738380432128906e+00) (134, -4.52920579910278320312e+00) (135, -8.59648823738098144531e-01) (136, 5.72666215896606445312e+00) (137, -4.50237846374511718750e+00) (138, -1.35413002967834472656e+00) (139, -4.08854246139526367188e+00) (140, -4.74106168746948242188e+00) (141, -1.11900858581066131592e-01) (142, 1.17643988132476806641e+00) (143, -1.44945546984672546387e-01) (144, -7.06474065780639648438e-01) (145, 2.15394401550292968750e+00) (146, -8.76148104667663574219e-01) (147, -5.09070920944213867188e+00) (148, -7.93153810501098632812e+00) (132, 7.72638380527496337891e-01) (133, 8.36255431175231933594e-01) (134, -3.10832047462463378906e+00) (135, -1.92241251468658447266e+00) (136, 3.99850392341613769531e+00) (137, -3.48214650154113769531e+00) (138, 5.37903189659118652344e-01) (139, -1.19015455245971679688e+00) (140, -2.88361907005310058594e+00) (141, 5.05435466766357421875e-02) (142, -1.25009473413228988647e-02) (143, -7.76281356811523437500e-01) (144, 7.46638953685760498047e-01) (145, 2.67629408836364746094e+00) (146, -2.05298021435737609863e-01) (147, -3.23851537704467773438e+00) (148, -4.99528264999389648438e+00) (132, 6.07891045510768890381e-02) (133, 1.23512625694274902344e+00) (134, -4.91675233840942382812e+00) (135, -1.37620544433593750000e+00) (136, 4.12812328338623046875e+00) (137, -2.76439523696899414062e+00) (138, 2.12208971381187438965e-01) (139, -1.65925180912017822266e+00) (140, -1.88462901115417480469e+00) (141, -4.55180317163467407227e-01) (142, -7.68852233886718750000e-01) (143, -3.55270028114318847656e-01) (144, 2.30231564491987228394e-02) (145, 1.16029000282287597656e+00) (146, -4.89674091339111328125e-01) (147, -2.13701796531677246094e+00) (148, -4.92836809158325195312e+00) (132, -2.52314228564500808716e-02) (133, 9.00918900966644287109e-01) (134, -2.96634078025817871094e+00) (135, -1.21111273765563964844e+00) (136, 3.32318711280822753906e+00) (137, -2.27709078788757324219e+00) (138, 1.17016918957233428955e-01) (139, -1.23612725734710693359e+00) (140, -1.52136981487274169922e+00) (141, -2.57818579673767089844e-01) (142, -2.76829808950424194336e-01) (143, -3.96672070026397705078e-01) (144, 8.29278007149696350098e-02) (145, 7.24825799465179443359e-01) (146, -1.26225486397743225098e-01) (147, -1.63637387752532958984e+00) (148, -4.30559349060058593750e+00) (132, -1.77285745739936828613e-01) (133, 6.75552606582641601562e-01) (134, -1.56805300712585449219e+00) (135, -1.03559589385986328125e+00) (136, 2.71916484832763671875e+00) (137, -1.87021613121032714844e+00) (138, 1.16038307547569274902e-01) (139, -7.60217785835266113281e-01) (140, -1.09322273731231689453e+00) (141, -4.33594062924385070801e-02) (142, 1.41582801938056945801e-01) (143, -2.62737214565277099609e-01) (144, 1.55952244997024536133e-01) (145, 2.78247863054275512695e-01) (146, -1.94336503744125366211e-01) (147, -1.01599931716918945312e+00) (148, -3.80648565292358398438e+00) (132, -7.19765067100524902344e-01) (133, 1.10311245918273925781e+00) (134, 3.15846323966979980469e-01) (135, -8.46650660037994384766e-01) (136, 2.62821626663208007812e+00) (137, -9.89290058612823486328e-01) (138, 9.06722068786621093750e-01) (139, 6.88248081132769584656e-03) (140, 9.39331669360399246216e-03) (141, -8.00391063094139099121e-02) (142, 2.01015859842300415039e-01) (143, 1.60915866494178771973e-01) (144, 7.09271490573883056641e-01) (145, 1.40640854835510253906e-01) (146, -5.74029386043548583984e-01) (147, 5.31011633574962615967e-02) (148, -3.34241628646850585938e+00) (132, -7.78176724910736083984e-01) (133, 1.10809671878814697266e+00) (134, 3.50081622600555419922e-01) (135, -8.50891888141632080078e-01) (136, 2.61363244056701660156e+00) (137, -9.87209081649780273438e-01) (138, 9.29720401763916015625e-01) (139, 8.91506224870681762695e-02) (140, 1.74634046852588653564e-02) (141, -8.93163308501243591309e-02) (142, 2.30241119861602783203e-01) (143, 1.00227281451225280762e-01) (144, 7.62078106403350830078e-01) (145, 1.33464068174362182617e-01) (146, -5.31908392906188964844e-01) (147, 2.20867269672453403473e-03) (148, -3.37250018119812011719e+00) (132, 1.10818803310394287109e+00) (133, 5.05705296993255615234e-01) (134, -5.58660840988159179688e+00) (135, 5.80638766288757324219e-01) (136, 2.23055505752563476562e+00) (137, 1.97861588001251220703e+00) (138, 2.56274133920669555664e-01) (139, 8.82853889465332031250e+00) (140, 6.57424032688140869141e-01) (141, -2.15616568922996520996e-01) (142, -5.82794427871704101562e-01) (143, -2.83743366599082946777e-02) (144, -4.60806369781494140625e-01) (145, 7.48451769351959228516e-01) (146, -1.22641539573669433594e+00) (147, 3.66654682159423828125e+00) (148, -4.98098325729370117188e+00) (132, -9.12464022636413574219e-01) (133, 7.21441805362701416016e-01) (134, 2.41153287887573242188e+00) (135, -1.07156515121459960938e+00) (136, 3.10793566703796386719e+00) (137, 2.19983577728271484375e+00) (138, -2.98378443717956542969e+00) (139, 1.07483959197998046875e+01) (140, -6.07790231704711914062e-01) (141, 2.37377047538757324219e+00) (142, -8.72222036123275756836e-02) (143, 3.50080102682113647461e-01) (144, 3.37523698806762695312e+00) (145, -1.37389349937438964844e+00) (146, -8.24635887145996093750e+00) (147, -2.75423717498779296875e+00) (148, -6.39678668975830078125e+00) (132, -7.78717517852783203125e-01) (133, 3.54885053634643554688e+00) (134, -2.11468982696533203125e+00) (135, -2.80181479454040527344e+00) (136, 2.20257997512817382812e+00) (137, 2.03550949692726135254e-01) (138, -2.31088185310363769531e+00) (139, 5.66272401809692382812e+00) (140, -1.99754917621612548828e+00) (141, -3.72737121582031250000e+00) (142, -1.38844549655914306641e+00) (143, -5.08713781833648681641e-01) (144, -3.27191567420959472656e+00) (145, -4.26063150167465209961e-01) (146, 7.07465857267379760742e-02) (147, -2.58968687057495117188e+00) (148, 