FANN_FLO_2.1
num_layers=3
learning_rate=0.693744
connection_rate=1.000000
network_type=0
learning_momentum=0.000000
training_algorithm=0
train_error_function=1
train_stop_function=0
cascade_output_change_fraction=0.010000
quickprop_decay=-0.000100
quickprop_mu=1.750000
rprop_increase_factor=1.200000
rprop_decrease_factor=0.500000
rprop_delta_min=0.000000
rprop_delta_max=50.000000
rprop_delta_zero=0.100000
cascade_output_stagnation_epochs=12
cascade_candidate_change_fraction=0.010000
cascade_candidate_stagnation_epochs=12
cascade_max_out_epochs=150
cascade_min_out_epochs=50
cascade_max_cand_epochs=150
cascade_min_cand_epochs=50
cascade_num_candidate_groups=2
bit_fail_limit=3.49999994039535522461e-01
cascade_candidate_limit=1.00000000000000000000e+03
cascade_weight_multiplier=4.00000005960464477539e-01
cascade_activation_functions_count=10
cascade_activation_functions=3 5 7 8 10 11 14 15 16 17 
cascade_activation_steepnesses_count=28
cascade_activation_steepnesses=2.10000000000000000000e+01 3.21000000000000000000e+02 3.22000000000000000000e+02 3.23000000000000000000e+02 3.24000000000000000000e+02 3.25000000000000000000e+02 3.26000000000000000000e+02 3.27000000000000000000e+02 3.28000000000000000000e+02 3.29000000000000000000e+02 3.42000000000000000000e+02 3.43000000000000000000e+02 3.44000000000000000000e+02 3.45000000000000000000e+02 3.46000000000000000000e+02 3.47000000000000000000e+02 3.48000000000000000000e+02 3.49000000000000000000e+02 3.50000000000000000000e+02 3.51000000000000000000e+02 1.15400000000000000000e+03 1.15600000000000000000e+03 0.00000000000000000000e+00 0.00000000000000000000e+00 0.00000000000000000000e+00 0.00000000000000000000e+00 0.00000000000000000000e+00 0.00000000000000000000e+00 
layer_sizes=22 17 22 
scale_included=0
neurons (num_inputs, activation_function, activation_steepness)=(0, 0, 0.00000000000000000000e+00) (0, 0, 0.00000000000000000000e+00) (0, 0, 0.00000000000000000000e+00) (0, 0, 0.00000000000000000000e+00) (0, 0, 0.00000000000000000000e+00) (0, 0, 0.00000000000000000000e+00) (0, 0, 0.00000000000000000000e+00) (0, 0, 0.00000000000000000000e+00) (0, 0, 0.00000000000000000000e+00) (0, 0, 0.00000000000000000000e+00) (0, 0, 0.00000000000000000000e+00) (0, 0, 0.00000000000000000000e+00) (0, 0, 0.00000000000000000000e+00) (0, 0, 0.00000000000000000000e+00) (0, 0, 0.00000000000000000000e+00) (0, 0, 0.00000000000000000000e+00) (0, 0, 0.00000000000000000000e+00) (0, 0, 0.00000000000000000000e+00) (0, 0, 0.00000000000000000000e+00) (0, 0, 0.00000000000000000000e+00) (0, 0, 0.00000000000000000000e+00) (0, 0, 0.00000000000000000000e+00) (22, 5, 5.00000000000000000000e-01) (22, 5, 5.00000000000000000000e-01) (22, 5, 5.00000000000000000000e-01) (22, 5, 5.00000000000000000000e-01) (22, 5, 5.00000000000000000000e-01) (22, 5, 5.00000000000000000000e-01) (22, 5, 5.00000000000000000000e-01) (22, 5, 5.00000000000000000000e-01) (22, 5, 5.00000000000000000000e-01) (22, 5, 5.00000000000000000000e-01) (22, 5, 5.00000000000000000000e-01) (22, 5, 5.00000000000000000000e-01) (22, 5, 5.00000000000000000000e-01) (22, 5, 5.00000000000000000000e-01) (22, 5, 5.00000000000000000000e-01) (22, 5, 5.00000000000000000000e-01) (0, 5, 0.00000000000000000000e+00) (17, 3, 5.00000000000000000000e-01) (17, 3, 5.00000000000000000000e-01) (17, 3, 5.00000000000000000000e-01) (17, 3, 5.00000000000000000000e-01) (17, 3, 5.00000000000000000000e-01) (17, 3, 5.00000000000000000000e-01) (17, 3, 5.00000000000000000000e-01) (17, 3, 5.00000000000000000000e-01) (17, 3, 5.00000000000000000000e-01) (17, 3, 5.00000000000000000000e-01) (17, 3, 5.00000000000000000000e-01) (17, 3, 5.00000000000000000000e-01) (17, 3, 5.00000000000000000000e-01) (17, 3, 5.00000000000000000000e-01) (17, 3, 5.00000000000000000000e-01) (17, 3, 5.00000000000000000000e-01) (17, 3, 5.00000000000000000000e-01) (17, 3, 5.00000000000000000000e-01) (17, 3, 5.00000000000000000000e-01) (17, 3, 5.00000000000000000000e-01) (17, 3, 5.00000000000000000000e-01) (0, 3, 0.00000000000000000000e+00) 
connections (connected_to_neuron, weight)=(0, 4.46632909774780273438e+00) (1, 1.79089546203613281250e+00) (2, 1.39075851440429687500e+00) (3, -1.11624740064144134521e-01) (4, 1.88309967517852783203e-01) (5, -3.69363501667976379395e-02) (6, -2.17695191502571105957e-01) (7, -3.06153092533349990845e-02) (8, -9.46893811225891113281e-01) (9, -3.99129092693328857422e-01) (10, -9.63208153843879699707e-02) (11, -6.96989834308624267578e-01) (12, -1.72540700435638427734e+00) (13, -7.70760357379913330078e-01) (14, -4.54435914754867553711e-01) (15, -5.07414698600769042969e-01) (16, -1.02863740921020507812e+00) (17, -2.43379667401313781738e-01) (18, -4.99896377325057983398e-01) (19, -2.52501040697097778320e-01) (20, 1.39308953285217285156e+00) (21, -1.07608640193939208984e+00) (0, -4.42754566669464111328e-01) (1, 3.10754179954528808594e-01) (2, -3.61493527889251708984e-01) (3, -3.05889040231704711914e-01) (4, 5.98627984523773193359e-01) (5, 9.03204739093780517578e-01) (6, 7.12341189384460449219e-01) (7, 3.66477668285369873047e-01) (8, 1.02641081809997558594e+00) (9, -3.54690402746200561523e-01) (10, -3.32693552970886230469e+00) (11, -4.68332433700561523438e+00) (12, -1.28699517250061035156e+00) (13, -3.50934147834777832031e-01) (14, 9.13424015045166015625e-01) (15, 5.69945633411407470703e-01) (16, 1.01593756675720214844e+00) (17, 5.56988716125488281250e-01) (18, 9.61247265338897705078e-01) (19, -1.96560218930244445801e-01) (20, 6.58919095993041992188e-01) (21, 2.76969361305236816406e+00) (0, -7.86694526672363281250e-01) (1, 7.03835129737854003906e-01) (2, -1.46780639886856079102e-01) (3, 9.06147956848144531250e-02) (4, 2.10704058408737182617e-02) (5, 2.76263177394866943359e-01) (6, 7.64944106340408325195e-02) (7, -8.89909788966178894043e-02) (8, 1.24789215624332427979e-03) (9, 2.86934822797775268555e-01) (10, -1.54445946216583251953e+00) (11, 1.36143910884857177734e+00) (12, -6.03147327899932861328e-01) (13, -5.32494485378265380859e-01) (14, -5.78708648681640625000e-02) (15, 4.09209430217742919922e-01) (16, -2.59288668632507324219e-01) (17, -1.93228553980588912964e-02) (18, 1.91539213061332702637e-01) (19, -1.02450875565409660339e-02) (20, 2.01517686247825622559e-01) (21, 1.44680604338645935059e-01) (0, 5.27156543731689453125e+00) (1, 1.29401278495788574219e+00) (2, 5.72918392717838287354e-02) (3, 2.15448856353759765625e-01) (4, -5.59996366500854492188e-01) (5, -8.66890251636505126953e-02) (6, -2.71268039941787719727e-01) (7, 2.65192627906799316406e-01) (8, -1.26491034030914306641e+00) (9, 4.46000903844833374023e-01) (10, 5.22608794271945953369e-02) (11, 3.81868392229080200195e-01) (12, 7.84654200077056884766e-01) (13, 5.28612770140171051025e-02) (14, -5.88813543319702148438e-01) (15, -5.93329250812530517578e-01) (16, -5.99045336246490478516e-01) (17, -1.96918264031410217285e-01) (18, -9.38309013843536376953e-01) (19, -2.81977027654647827148e-01) (20, 1.19451701641082763672e+00) (21, -1.65615475177764892578e+00) (0, -1.98608249425888061523e-01) (1, -8.31194281578063964844e-01) (2, -4.05340433120727539062e-01) (3, -9.74690556526184082031e-01) (4, -1.89494937658309936523e-01) (5, 9.34233665466308593750e-01) (6, -4.72740948200225830078e-01) (7, 4.42905902862548828125e-01) (8, 9.20933067798614501953e-01) (9, 6.91523969173431396484e-01) (10, -2.77713626623153686523e-01) (11, -3.60420048236846923828e-01) (12, -3.68359029293060302734e-01) (13, -1.25170719623565673828e+00) (14, 6.19373917579650878906e-01) (15, 4.28095251321792602539e-01) (16, 6.86215937137603759766e-01) (17, 4.02677983045578002930e-01) (18, 5.47950923442840576172e-01) (19, 5.00307381153106689453e-01) (20, -1.67641043663024902344e-01) (21, 2.18010330200195312500e+00) (0, 1.24875950813293457031e+00) (1, 1.00643277168273925781e+00) (2, 6.60613179206848144531e-01) (3, 1.75005719065666198730e-01) (4, -3.75538021326065063477e-01) (5, 6.72547668218612670898e-02) (6, 9.20007824897766113281e-02) (7, -2.13086102157831192017e-02) (8, -1.69018611311912536621e-01) (9, -5.08532881736755371094e-01) (10, 8.43779504299163818359e-01) (11, 2.77810603380203247070e-01) (12, 3.38123552501201629639e-02) (13, -8.65857079625129699707e-02) (14, -3.25101435184478759766e-01) (15, -5.43605163693428039551e-02) (16, -2.00225070118904113770e-01) (17, -4.22153919935226440430e-01) (18, -6.10041692852973937988e-02) (19, -1.00843295454978942871e-01) (20, 6.54493927955627441406e-01) (21, -4.72071498632431030273e-01) (0, -2.64198374748229980469e+00) (1, -1.05937659740447998047e+00) (2, -1.44450819492340087891e+00) (3, -3.52352499961853027344e-01) (4, 2.87794589996337890625e-01) (5, -8.92166942358016967773e-02) (6, -7.45599418878555297852e-02) (7, 1.38936594128608703613e-01) (8, 1.45117178559303283691e-01) (9, 2.06810927391052246094e+00) (10, 3.35284233093261718750e-01) (11, 1.01463675498962402344e-01) (12, 6.92562282085418701172e-01) (13, 6.74785017967224121094e-01) (14, -7.88700394332408905029e-03) (15, 9.99712944030761718750e-03) (16, 7.62391835451126098633e-02) (17, 4.66015338897705078125e-01) (18, -2.29353532195091247559e-01) (19, 2.27142632007598876953e-01) (20, -9.99599814414978027344e-01) (21, 1.92922949790954589844e-02) (0, 7.45676815509796142578e-01) (1, -8.31156194210052490234e-01) (2, 4.43277582526206970215e-02) (3, 3.74719738960266113281e-01) (4, -3.38294863700866699219e-01) (5, -1.41716480255126953125e-01) (6, -1.22674658894538879395e-01) (7, -3.32080781459808349609e-01) (8, -8.09509277343750000000e-01) (9, 6.65785980224609375000e+00) (10, -1.24502077698707580566e-01) (11, 3.57444286346435546875e-01) (12, 8.87948691844940185547e-01) (13, 4.48419511318206787109e-01) (14, -3.28050673007965087891e-01) (15, -8.28765779733657836914e-02) (16, -7.66837656497955322266e-01) (17, -1.20806016027927398682e-01) (18, -7.95641422271728515625e-01) (19, -1.87353834509849548340e-01) (20, 2.79583156108856201172e-01) (21, -1.96649694442749023438e+00) (0, -1.32287716865539550781e+00) (1, -2.54452913999557495117e-01) (2, -2.49310731887817382812e-01) (3, -4.03459310531616210938e-01) (4, 7.31663703918457031250e-02) (5, 3.65968346595764160156e-01) (6, -5.26513636112213134766e-01) (7, 1.13082408905029296875e-01) (8, 3.47797758877277374268e-02) (9, 2.68808817863464355469e+00) (10, -1.91450551152229309082e-01) (11, -2.39063039422035217285e-01) (12, 4.85557794570922851562e-01) (13, 4.73984368145465850830e-02) (14, 2.38907068967819213867e-01) (15, -6.80303573608398437500e-01) (16, 1.57697141170501708984e-01) (17, 4.05443668365478515625e-01) (18, -2.68967688083648681641e-01) (19, -5.03064274787902832031e-01) (20, -2.79426574707031250000e-01) (21, -4.41833794116973876953e-01) (0, -1.29462265968322753906e+00) (1, 1.94264864921569824219e+00) (2, -2.12291032075881958008e-01) (3, 6.27517476677894592285e-02) (4, -1.02358236908912658691e-01) (5, 3.50255221128463745117e-02) (6, 4.32632058858871459961e-01) (7, -1.81418001651763916016e-01) (8, -2.19687491655349731445e-01) (9, -1.28307783603668212891e+00) (10, -8.78079891204833984375e-01) (11, -2.07249924540519714355e-01) (12, -8.41077089309692382812e-01) (13, 1.21751442551612854004e-01) (14, -3.31036150455474853516e-01) (15, 5.82446530461311340332e-03) (16, 2.78783112764358520508e-01) (17, -8.57770517468452453613e-02) (18, -2.06948071718215942383e-01) (19, 6.91839307546615600586e-02) (20, 1.34360504150390625000e+00) (21, -1.99059337377548217773e-01) (0, 8.07394266128540039062e-01) (1, -2.34178900718688964844e-01) (2, 1.36606246232986450195e-01) (3, 2.58520245552062988281e-01) (4, 8.21407139301300048828e-01) (5, 1.22548341751098632812e+00) (6, 8.69326770305633544922e-01) (7, -4.46536689996719360352e-02) (8, 6.20983421802520751953e-01) (9, -3.45827889442443847656e+00) (10, -5.25511837005615234375e+00) (11, -9.31084334850311279297e-01) (12, -9.37506332993507385254e-02) (13, -2.28761404752731323242e-01) (14, 3.27226430177688598633e-01) (15, 4.12643700838088989258e-01) (16, 7.27899014949798583984e-01) (17, 4.68353420495986938477e-01) (18, 8.45236718654632568359e-01) (19, -4.34585928916931152344e-01) (20, -6.15056514739990234375e-01) (21, 2.76703095436096191406e+00) (0, 7.48890042304992675781e-01) (1, -7.96586155891418457031e-01) (2, -4.31168854236602783203e-01) (3, -2.17453584074974060059e-01) (4, -7.29148909449577331543e-02) (5, 1.22397616505622863770e-01) (6, 4.30509671568870544434e-02) (7, 2.50541597604751586914e-01) (8, 8.61831158399581909180e-02) (9, -8.30067917704582214355e-02) (10, -5.64141988754272460938e-01) (11, -1.24621734023094177246e-01) (12, -3.24200838804244995117e-01) (13, -2.90099471807479858398e-01) (14, 1.31625548005104064941e-01) (15, 9.20462906360626220703e-02) (16, 1.50655463337898254395e-01) (17, 1.27279609441757202148e-01) (18, 1.88772276043891906738e-01) (19, -1.44794359803199768066e-01) (20, -4.27882730960845947266e-01) (21, 5.90313017368316650391e-01) (0, -1.04093015193939208984e+00) (1, 4.60463881492614746094e-01) (2, 1.09804272651672363281e+00) (3, -6.42278254032135009766e-01) (4, -1.07004076242446899414e-01) (5, 9.46539714932441711426e-02) (6, 3.10062825679779052734e-01) (7, -1.28923505544662475586e-02) (8, -5.20385662093758583069e-03) (9, -1.88260829448699951172e+00) (10, -3.65349483489990234375e+00) (11, -7.18950331211090087891e-01) (12, -8.18176925182342529297e-01) (13, -3.22671025991439819336e-01) (14, 3.51684331893920898438e-01) (15, -3.68795514106750488281e-01) (16, -1.19923152029514312744e-01) (17, 3.98111231625080108643e-02) (18, 7.52884373068809509277e-02) (19, -6.72388598322868347168e-02) (20, 1.96829751133918762207e-01) (21, 1.10074102878570556641e+00) (0, -5.15937805175781250000e-02) (1, 4.32112127542495727539e-01) (2, 7.00198590755462646484e-01) (3, 1.70626950263977050781e+00) (4, -1.43729493021965026855e-01) (5, -5.99653899669647216797e-01) (6, -2.64962852001190185547e-01) (7, -4.21731144189834594727e-01) (8, -9.87736046314239501953e-01) (9, -7.14005351066589355469e-01) (10, 1.06153738498687744141e+00) (11, 2.27897953987121582031e+00) (12, 2.57264208793640136719e+00) (13, 1.58320903778076171875e+00) (14, -2.93171137571334838867e-01) (15, -3.45442771911621093750e-01) (16, -5.54033577442169189453e-01) (17, -2.15719282627105712891e-01) (18, -1.14735174179077148438e+00) (19, -2.92132973670959472656e-01) (20, -5.12431085109710693359e-01) (21, -2.33169507980346679688e+00) (0, 2.48712229728698730469e+00) (1, -8.68439316749572753906e-01) (2, -1.05207514762878417969e+00) (3, -8.38695392012596130371e-02) (4, -5.18285036087036132812e-01) (5, -1.60012781620025634766e-01) (6, -1.09875649213790893555e-01) (7, 6.01418614387512207031e-02) (8, -4.16239619255065917969e-01) (9, 1.89175859093666076660e-01) (10, 1.26264672726392745972e-02) (11, 1.17153787612915039062e+00) (12, 1.11317479610443115234e+00) (13, -2.22658306360244750977e-01) (14, 8.36808383464813232422e-02) (15, -4.37433391809463500977e-01) (16, -3.17141562700271606445e-01) (17, -9.00597646832466125488e-02) (18, -2.40590214729309082031e-01) (19, -7.55291879177093505859e-02) (20, -1.01168525218963623047e+00) (21, -7.00249910354614257812e-01) (0, -6.41070902347564697266e-01) (1, 1.02727162837982177734e+00) (2, 6.22146129608154296875e-01) (3, 4.56611245870590209961e-01) (4, -1.85516551136970520020e-01) (5, -1.93110242486000061035e-01) (6, -1.07411816716194152832e-02) (7, -4.94363993406295776367e-01) (8, -6.71642482280731201172e-01) (9, 5.38416624069213867188e-01) (10, 1.26636981964111328125e+00) (11, -6.03798739612102508545e-02) (12, 5.92139780521392822266e-01) (13, 9.36915457248687744141e-01) (14, 4.87615354359149932861e-02) (15, -1.49636924266815185547e-01) (16, -4.63200956583023071289e-01) (17, -2.84334063529968261719e-01) (18, -6.80167138576507568359e-01) (19, 5.42059987783432006836e-02) (20, 8.28725993633270263672e-01) (21, -1.68444883823394775391e+00) (22, -3.23683410882949829102e-01) (23, 1.54528215527534484863e-01) (24, -2.14032493531703948975e-02) (25, 1.77145197987556457520e-01) (26, 8.04968237876892089844e-01) (27, -2.33799219131469726562e-01) (28, 1.84492290019989013672e-01) (29, 1.33188199996948242188e+00) (30, 9.32069495320320129395e-02) (31, -4.15322422981262207031e-01) (32, 2.58927553892135620117e-01) (33, 3.10367848724126815796e-02) (34, -1.66986748576164245605e-01) (35, -2.51204222440719604492e-01) (36, 4.39951755106449127197e-03) (37, -1.34441435337066650391e-01) (38, 5.83434700965881347656e-01) (22, 8.06132555007934570312e-01) (23, -5.65646179020404815674e-02) (24, -3.24814736843109130859e-01) (25, 1.66685616970062255859e+00) (26, 1.05309583246707916260e-01) (27, -1.33452609181404113770e-01) (28, -5.42456209659576416016e-01) (29, 1.43013155460357666016e+00) (30, -1.19433291256427764893e-01) (31, -1.04598510265350341797e+00) (32, 4.38598930835723876953e-01) (33, 3.96129578351974487305e-01) (34, -8.15773606300354003906e-01) (35, -7.97485783696174621582e-02) (36, 9.18676435947418212891e-01) (37, -3.26110959053039550781e-01) (38, -1.40617775917053222656e+00) (22, 1.72627902030944824219e+00) (23, 5.67879796028137207031e-01) (24, 4.46035027503967285156e-01) (25, 2.11004304885864257812e+00) (26, -3.73298704624176025391e-01) (27, 6.33708655834197998047e-01) (28, -6.46489918231964111328e-01) (29, 9.27389681339263916016e-01) (30, -1.80667147040367126465e-01) (31, 1.32459425926208496094e+00) (32, -2.29276210069656372070e-01) (33, -3.30731779336929321289e-01) (34, 5.53443916141986846924e-02) (35, -5.82910478115081787109e-01) (36, -3.08788388967514038086e-01) (37, 7.16576099395751953125e-01) (38, -1.55040061473846435547e+00) (22, 1.29159724712371826172e+00) (23, -1.45171120762825012207e-01) (24, -4.71655249595642089844e-01) (25, 2.96793758869171142578e-01) (26, -8.93392860889434814453e-01) (27, 2.16459840536117553711e-01) (28, -4.16799426078796386719e-01) (29, 9.94402527809143066406e-01) (30, -3.83703038096427917480e-02) (31, -2.56427288055419921875e-01) (32, -6.24152004718780517578e-01) (33, -3.61182630062103271484e-01) (34, 4.17979955673217773438e-01) (35, 5.26410520076751708984e-01) (36, -6.22291088104248046875e-01) (37, 6.58535122871398925781e-01) (38, -2.32781505584716796875e+00) (22, 4.93396282196044921875e-01) (23, 1.11796893179416656494e-01) (24, 6.80772066116333007812e-02) (25, 1.93655520677566528320e-01) (26, -8.96218955516815185547e-01) (27, -7.70536288619041442871e-02) (28, -2.04924121499061584473e-02) (29, 5.51868438720703125000e-01) (30, 3.26036550104618072510e-02) (31, -5.54774366319179534912e-02) (32, 1.32301092147827148438e-01) (33, -5.19996359944343566895e-02) (34, 2.88308084011077880859e-01) (35, 6.48288249969482421875e-01) (36, -4.27874363958835601807e-02) (37, 2.98306286334991455078e-01) (38, -2.56988286972045898438e+00) (22, 3.20676505565643310547e-01) (23, -1.56356871128082275391e-01) (24, 2.16534540057182312012e-01) (25, 7.64504894614219665527e-02) (26, -1.05513584613800048828e+00) (27, -6.32482692599296569824e-02) (28, -6.28347545862197875977e-02) (29, 2.80967593193054199219e-01) (30, -6.99099600315093994141e-02) (31, 1.54697299003601074219e-01) (32, 1.54847934842109680176e-01) (33, -1.17210038006305694580e-01) (34, 7.83036574721336364746e-02) (35, 5.34418463706970214844e-01) (36, 4.48366366326808929443e-02) (37, 2.96809434890747070312e-01) (38, -2.57962751388549804688e+00) (22, 2.31323227286338806152e-01) (23, -1.33992582559585571289e-01) (24, 1.67027205228805541992e-01) (25, 2.40711290389299392700e-02) (26, -1.19313561916351318359e+00) (27, 2.37905681133270263672e-02) (28, -2.10973426699638366699e-01) (29, 1.47520557045936584473e-01) (30, -4.33256812393665313721e-02) (31, 2.43448302149772644043e-01) (32, -6.92984263878315687180e-04) (33, -1.75345502793788909912e-02) (34, 1.19341947138309478760e-01) (35, 6.28074586391448974609e-01) (36, 1.06290429830551147461e-02) (37, 3.89255821704864501953e-01) (38, -2.65807247161865234375e+00) (22, 3.85250560939311981201e-02) (23, -2.23255127668380737305e-01) (24, 2.30136051774024963379e-01) (25, 1.19598479941487312317e-02) (26, -1.30080723762512207031e+00) (27, 9.25325322896242141724e-03) (28, -2.16228529810905456543e-01) (29, 1.01905293762683868408e-01) (30, -1.07341796159744262695e-01) (31, 2.42594256997108459473e-01) (32, -5.01471012830734252930e-02) (33, 2.36997921019792556763e-02) (34, 2.31054201722145080566e-01) (35, 6.62520647048950195312e-01) (36, 1.94967612624168395996e-01) (37, 4.14071828126907348633e-01) (38, -2.73266959190368652344e+00) (22, 1.78547501564025878906e-02) (23, -1.77281439304351806641e-01) (24, 4.44261990487575531006e-02) (25, -4.86990287899971008301e-02) (26, -1.38455808162689208984e+00) (27, 2.33940524049103260040e-03) (28, -1.88919305801391601562e-01) (29, 1.08779624104499816895e-01) (30, 5.92029560357332229614e-03) (31, 2.00412616133689880371e-01) (32, -3.03065702319145202637e-02) (33, 8.33064317703247070312e-02) (34, 2.56142407655715942383e-01) (35, 8.08540344238281250000e-01) (36, 1.41272887587547302246e-01) (37, 4.55328077077865600586e-01) (38, -2.78627848625183105469e+00) (22, 5.58129232376813888550e-03) (23, 1.46890550851821899414e-01) (24, -1.96049027144908905029e-02) (25, 2.82174404710531234741e-02) (26, 1.39625620841979980469e+00) (27, -3.05210668593645095825e-02) (28, 1.22547604143619537354e-01) (29, -1.10170044004917144775e-01) (30, -7.57205858826637268066e-02) (31, -1.42790794372558593750e-01) (32, 5.55822439491748809814e-02) (33, -1.23685315251350402832e-01) (34, -2.05328240990638732910e-01) (35, -8.05811464786529541016e-01) (36, 7.66287418082356452942e-03) (37, -4.53434735536575317383e-01) (38, 2.81110477447509765625e+00) (22, 3.96232366561889648438e-01) (23, 1.33979439735412597656e-01) (24, 4.75703686475753784180e-01) (25, 7.55235612392425537109e-01) (26, 5.96944689750671386719e-01) (27, -6.15496158599853515625e-01) (28, 1.00185656547546386719e+00) (29, 3.86110281944274902344e+00) (30, 1.47717094421386718750e+00) (31, -4.42023247480392456055e-01) (32, -8.81990909576416015625e-01) (33, 6.84677734971046447754e-02) (34, -5.85091829299926757812e-01) (35, -7.63329923152923583984e-01) (36, -7.68080577254295349121e-02) (37, -3.41654941439628601074e-02) (38, -6.70372843742370605469e-01) (22, 2.12853893637657165527e-01) (23, -6.31953239440917968750e-01) (24, -1.45060265064239501953e+00) (25, 5.11473178863525390625e-01) (26, -5.39434015750885009766e-01) (27, 3.20799350738525390625e-02) (28, 6.86773657798767089844e-01) (29, 2.15732073783874511719e+00) (30, 5.68593084812164306641e-01) (31, -5.43976545333862304688e-01) (32, -3.02889847755432128906e+00) (33, -1.84150874614715576172e-01) (34, -1.69737720489501953125e+00) (35, -2.47513070702552795410e-01) (36, -2.83509165048599243164e-01) (37, 8.03040683269500732422e-01) (38, -2.40101981163024902344e+00) (22, -3.39398793876171112061e-02) (23, -2.52357673645019531250e+00) (24, 6.18946909904479980469e-01) (25, 2.77540683746337890625e-01) (26, -1.00685334205627441406e+00) (27, 2.11791083216667175293e-01) (28, 3.16414892673492431641e-01) (29, 1.45328474044799804688e+00) (30, 1.14828936755657196045e-01) (31, -1.77459046244621276855e-01) (32, -1.90946555137634277344e+00) (33, -6.38381540775299072266e-02) (34, -9.10876154899597167969e-01) (35, 6.61655366420745849609e-01) (36, 5.41143715381622314453e-01) (37, 1.58132433891296386719e-01) (38, -2.67645859718322753906e+00) (22, -9.29136157035827636719e-01) (23, -1.27007746696472167969e+00) (24, -3.09569835662841796875e-01) (25, 7.82141566276550292969e-01) (26, -8.32155227661132812500e-01) (27, 2.19720005989074707031e-01) (28, 3.37517768144607543945e-01) (29, 1.19757974147796630859e+00) (30, 2.60207891464233398438e-01) (31, -3.46145361661911010742e-01) (32, -6.48270964622497558594e-01) (33, -2.57466316223144531250e-01) (34, -6.88191890716552734375e-01) (35, 1.31182074546813964844e+00) (36, 7.66048431396484375000e-01) (37, 4.87632006406784057617e-01) (38, -2.59798407554626464844e+00) (22, -1.81697532534599304199e-01) (23, -7.08009421825408935547e-01) (24, -3.03270667791366577148e-01) (25, 6.68283104896545410156e-01) (26, -1.14147496223449707031e+00) (27, -8.70965793728828430176e-02) (28, 4.79488581418991088867e-01) (29, 5.73008716106414794922e-01) (30, 1.93226322531700134277e-01) (31, -7.78613686561584472656e-02) (32, -1.37787684798240661621e-01) (33, -6.85999840497970581055e-02) (34, -1.50440335273742675781e-01) (35, 1.12562274932861328125e+00) (36, 4.60111707448959350586e-01) (37, 4.99240577220916748047e-01) (38, -2.59769940376281738281e+00) (22, -1.20006360113620758057e-01) (23, -5.77932238578796386719e-01) (24, -6.07941485941410064697e-02) (25, 4.23864036798477172852e-01) (26, -9.85258400440216064453e-01) (27, -6.18389584124088287354e-02) (28, 1.98036387562751770020e-01) (29, 4.08186286687850952148e-01) (30, 1.45982638001441955566e-01) (31, -8.34322199225425720215e-02) (32, -4.62322831153869628906e-01) (33, -9.98485088348388671875e-02) (34, -1.76947310566902160645e-01) (35, 5.21612703800201416016e-01) (36, 2.97434270381927490234e-01) (37, 5.74268937110900878906e-01) (38, -2.58313393592834472656e+00) (22, 1.55889261513948440552e-02) (23, -2.98271477222442626953e-01) (24, 9.24249067902565002441e-02) (25, 8.74302759766578674316e-02) (26, -1.08795952796936035156e+00) (27, 3.45014892518520355225e-02) (28, -3.38963270187377929688e-02) (29, 1.48592993617057800293e-01) (30, -1.69991478323936462402e-02) (31, -2.58214138448238372803e-02) (32, -2.55733162164688110352e-01) (33, 1.57412260770797729492e-01) (34, 2.93316412717103958130e-02) (35, 6.56927347183227539062e-01) (36, 1.94854691624641418457e-01) (37, 4.40097510814666748047e-01) (38, -2.75991725921630859375e+00) (22, -2.23079621791839599609e-02) (23, -2.93636679649353027344e-01) (24, -1.94591644685715436935e-04) (25, 5.74280694127082824707e-02) (26, -1.28459262847900390625e+00) (27, 5.89971477165818214417e-03) (28, -1.13743789494037628174e-01) (29, 1.47740527987480163574e-01) (30, 8.26870277523994445801e-02) (31, 1.28976479172706604004e-01) (32, -1.80217161774635314941e-01) (33, 1.29600986838340759277e-01) (34, 1.52232930064201354980e-01) (35, 7.28933691978454589844e-01) (36, 1.14764288067817687988e-01) (37, 3.91186416149139404297e-01) (38, -2.80499815940856933594e+00) (22, 9.70225930213928222656e-02) (23, -2.35697790980339050293e-01) (24, 7.83820375800132751465e-02) (25, -4.37748655676841735840e-02) (26, -1.25022470951080322266e+00) (27, 5.27952648699283599854e-02) (28, -3.13048996031284332275e-02) (29, 6.35076984763145446777e-02) (30, 8.75336304306983947754e-02) (31, 1.05026856064796447754e-01) (32, -1.63858771324157714844e-01) (33, 1.38268232345581054688e-01) (34, 9.17944833636283874512e-02) (35, 7.97641336917877197266e-01) (36, 5.51776289939880371094e-02) (37, 3.83572399616241455078e-01) (38, -2.85247325897216796875e+00) (22, -3.60396206378936767578e-01) (23, 2.87482649087905883789e-01) (24, 3.51670205593109130859e-01) (25, -6.04615271091461181641e-01) (26, -4.90654945373535156250e-01) (27, -4.58007156848907470703e-01) (28, 6.38791739940643310547e-01) (29, 1.59657418727874755859e-01) (30, 4.41839456558227539062e-01) (31, 4.66822117567062377930e-01) (32, 1.09380878508090972900e-01) (33, 3.84368225932121276855e-02) (34, 3.83974790573120117188e-01) (35, 2.40981653332710266113e-01) (36, 2.08874717354774475098e-01) (37, 1.07247412204742431641e-01) (38, -9.59198772907257080078e-01) (22, -1.02979266643524169922e+00) (23, 2.78249084949493408203e-02) (24, 3.35357844829559326172e-01) (25, -1.51010644435882568359e+00) (26, -1.41114860773086547852e-01) (27, -2.76786565780639648438e-01) (28, 5.78868985176086425781e-01) (29, 4.14214551448822021484e-01) (30, 5.79322814941406250000e-01) (31, 3.46591025590896606445e-01) (32, -5.22535085678100585938e-01) (33, -1.11197419464588165283e-01) (34, 7.53517985343933105469e-01) (35, 9.08673703670501708984e-02) (36, -9.00193512439727783203e-01) (37, 3.22757005691528320312e-01) (38, -7.58084535598754882812e-01) 
